{"learner":{"attributes":{"scikit_learn":"{\"use_label_encoder\": true, \"n_estimators\": 100, \"objective\": \"binary:logistic\", \"max_depth\": null, \"learning_rate\": null, \"verbosity\": null, \"booster\": null, \"tree_method\": null, \"gamma\": null, \"min_child_weight\": null, \"max_delta_step\": null, \"subsample\": null, \"colsample_bytree\": null, \"colsample_bylevel\": null, \"colsample_bynode\": null, \"reg_alpha\": null, \"reg_lambda\": null, \"scale_pos_weight\": null, \"base_score\": null, \"missing\": NaN, \"num_parallel_tree\": null, \"kwargs\": {}, \"random_state\": null, \"n_jobs\": null, \"monotone_constraints\": null, \"interaction_constraints\": null, \"importance_type\": \"gain\", \"gpu_id\": null, \"validate_parameters\": null, \"classes_\": [0.0, 1.0], \"n_classes_\": 2, \"_le\": {\"classes_\": [0.0, 1.0]}, \"_estimator_type\": \"classifier\"}"},"feature_names":[],"feature_types":[],"gradient_booster":{"model":{"gbtree_model_param":{"num_trees":"100","size_leaf_vector":"0"},"tree_info":[0,0,0,0,0,0,0,0,0,0,0,0,0,0,0,0,0,0,0,0,0,0,0,0,0,0,0,0,0,0,0,0,0,0,0,0,0,0,0,0,0,0,0,0,0,0,0,0,0,0,0,0,0,0,0,0,0,0,0,0,0,0,0,0,0,0,0,0,0,0,0,0,0,0,0,0,0,0,0,0,0,0,0,0,0,0,0,0,0,0,0,0,0,0,0,0,0,0,0,0],"trees":[{"base_weights":[-6.254826E-1,-1.2261904E0,4.7311828E-1,-1.6345178E0,-6.293706E-1,-1E0,8.051948E-1,-1.8558558E0,-1.2888889E0,-1.7333333E0,-3.2478634E-1,-1.4782609E0,-1.1764706E-1,4.587156E-1,1.5102041E0,-1.8878505E0,-5E-1,-1.3882353E0,2.2222222E-1,-5.858586E-1,9.0909094E-1,-6.666667E-1,6.666667E-1,-3.076923E-2,1.0833334E0,1.6363636E0,2.2222222E-1,-2.5E-1,-1.5616438E0,-1.8666667E-1,-1.5714285E0,-0E0,1.4285715E0,-0E0,-1E0,-3.8297874E-1,7.2727275E-1,3.1578946E-1,1.3939394E0,-1.2E0,8E-1,-1.75E0,-1.0344827E0,3.478261E-1,-9.0909094E-1,-5E-1,5E-1,-7.027027E-1,5.714286E-1,-1.5384616E-1,1.3846154E0,6.666667E-1,-5E-1,1.5384616E0,5.4545456E-1],"categories":[],"categories_nodes":[],"categories_segments":[],"categories_sizes":[],"default_left":[true,true,true,true,true,true,true,true,true,false,true,false,true,true,true,false,false,true,false,true,true,true,false,true,true,false,false,true,true,true,false,true,false,false,false,true,true,true,true,false,false,false,false,false,false,false,false,false,false,false,false,false,false,false,false],"id":0,"left_children":[1,3,5,7,9,11,13,15,17,-1,19,-1,21,23,25,-1,-1,27,-1,29,31,33,-1,35,37,-1,-1,39,41,43,-1,45,-1,-1,-1,47,49,51,53,-1,-1,-1,-1,-1,-1,-1,-1,-1,-1,-1,-1,-1,-1,-1,-1],"loss_changes":[8.604213E1,1.9441895E1,2.3552435E1,1.3756714E0,1.1457964E1,3.6240406E0,8.711683E0,2.5987244E-1,3.6862755E0,0E0,9.954933E0,0E0,2.27451E0,8.364773E0,1.6268806E0,0E0,0E0,3.8039093E0,0E0,9.444099E0,2.5974026E0,6.666666E-1,0E0,4.6171107E0,2.4206553E0,0E0,0E0,4.95E0,1.7700195E-3,7.556153E0,0E0,1E0,0E0,0E0,0E0,3.98702E0,3.398601E0,1.6929823E0,1.7249298E-1,0E0,0E0,0E0,0E0,0E0,0E0,0E0,0E0,0E0,0E0,0E0,0E0,0E0,0E0,0E0,0E0],"parents":[2147483647,0,0,1,1,2,2,3,3,4,4,5,5,6,6,7,7,8,8,10,10,12,12,13,13,14,14,17,17,19,19,20,20,21,21,23,23,24,24,27,27,28,28,29,29,31,31,35,35,36,36,37,37,38,38],"right_children":[2,4,6,8,10,12,14,16,18,-1,20,-1,22,24,26,-1,-1,28,-1,30,32,34,-1,36,38,-1,-1,40,42,44,-1,46,-1,-1,-1,48,50,52,54,-1,-1,-1,-1,-1,-1,-1,-1,-1,-1,-1,-1,-1,-1,-1,-1],"split_conditions":[1.275E2,2.85E1,2.815E1,3.095E1,2.635E1,1.455E2,1.655E2,5.5E0,8.925E-1,-5.2000004E-1,1.48E2,-4.434783E-1,1.65E1,4.36E-1,9.2E1,-5.6635517E-1,-1.5E-1,8E0,6.666667E-2,2.1E1,4.9699998E-1,1.625E2,2.0000002E-1,4.15E1,2.85E1,4.909091E-1,6.666667E-2,1.1E2,5.005E-1,3.405E1,-4.7142857E-1,7.7E1,4.2857146E-1,-0E0,-3E-1,4.15E1,5.5E0,3.95E1,1.545E2,-3.6E-1,2.4000001E-1,-5.2500004E-1,-3.1034482E-1,1.0434783E-1,-2.7272728E-1,-1.5E-1,1.5E-1,-2.1081083E-1,1.7142859E-1,-4.615385E-2,4.1538465E-1,2.0000002E-1,-1.5E-1,4.615385E-1,1.6363637E-1],"split_indices":[1,7,5,5,5,1,1,0,6,0,4,0,3,6,2,0,0,3,0,4,6,1,0,7,7,0,0,1,6,5,0,2,0,0,0,5,0,3,1,0,0,0,0,0,0,0,0,0,0,0,0,0,0,0,0],"split_type":[0,0,0,0,0,0,0,0,0,0,0,0,0,0,0,0,0,0,0,0,0,0,0,0,0,0,0,0,0,0,0,0,0,0,0,0,0,0,0,0,0,0,0,0,0,0,0,0,0,0,0,0,0,0,0],"sum_hessian":[1.285E2,8.3E1,4.55E1,4.825E1,3.475E1,8E0,3.75E1,2.675E1,2.15E1,6.5E0,2.825E1,4.75E0,3.25E0,2.625E1,1.125E1,2.575E1,1E0,2.025E1,1.25E0,2.375E1,4.5E0,2E0,1.25E0,1.525E1,1.1E1,1E1,1.25E0,3E0,1.725E1,1.775E1,6E0,2E0,2.5E0,1E0,1E0,1.075E1,4.5E0,3.75E0,7.25E0,1.5E0,1.5E0,1.1E1,6.25E0,1.05E1,7.25E0,1E0,1E0,8.25E0,2.5E0,2.25E0,2.25E0,2.75E0,1E0,5.5E0,1.75E0],"tree_param":{"num_deleted":"0","num_feature":"8","num_nodes":"55","size_leaf_vector":"0"}},{"base_weights":[-4.7143587E-1,-9.3776494E-1,3.663974E-1,-1.2619509E0,-4.7810477E-1,-7.871026E-1,6.262287E-1,-1.419253E0,-9.538082E-1,-1.069356E0,-1.0553564E-1,-1.1635509E0,-1.0708315E-1,2.758235E-1,1.0348407E0,-1.5310664E0,-8.719941E-1,-1.0616001E0,3.2433715E-1,-1.9246621E-2,-1.1721668E0,-1.2214171E0,1.4917587E-1,-5.7163376E-1,5.5900943E-1,-6.1168194E-1,4.7960064E-1,1.1013912E0,9.707685E-2,-7.2868004E-2,-1.1463447E0,-1.2730857E0,-4.4888794E-1,-1.3931905E0,-3.5180223E-1,-8.860137E-1,4.7467834E-1,8.846826E-2,-9.916451E-1,9.7202756E-2,8.203717E-1,6.6296494E-1,1.2512141E0,-4.9225903E-1,-1.4293451E0,5.7027805E-1,-8.963727E-1,-7.5847435E-1,2.950013E-1,-1.0982505E0,-1.3516228E-1,7.484298E-1,-6.874301E-1,6.164854E-1,-1.677869E-1,1.0181203E0,-2.695361E-1,9.05975E-1,2.4406586E-2],"categories":[],"categories_nodes":[],"categories_segments":[],"categories_sizes":[],"default_left":[true,true,true,true,true,true,true,true,true,true,true,false,true,true,true,false,true,true,false,false,true,false,true,false,false,true,true,true,false,false,false,true,true,false,true,true,true,false,false,true,true,true,false,false,false,false,false,false,false,false,false,false,false,false,false,false,false,false,false],"id":1,"left_children":[1,3,5,7,9,11,13,15,17,19,21,-1,23,25,27,-1,29,31,-1,-1,33,-1,35,-1,-1,37,39,41,-1,-1,-1,43,45,-1,47,49,51,-1,-1,53,55,57,-1,-1,-1,-1,-1,-1,-1,-1,-1,-1,-1,-1,-1,-1,-1,-1,-1],"loss_changes":[4.8866478E1,1.1327744E1,1.4018059E1,8.925781E-1,7.5362153E0,2.1125994E0,5.0676794E0,4.1688538E-1,2.9222126E0,1.414772E0,6.551973E0,0E0,1.6239405E0,4.1800156E0,9.4758034E-1,0E0,1.4907055E0,1.6948586E0,0E0,0E0,1.7055359E0,0E0,6.8689504E0,0E0,0E0,1.272225E0,2.270813E0,2.004757E-1,0E0,0E0,0E0,8.163357E-1,3.2623494E0,0E0,1.2516727E0,6.3668394E-1,5.3533325E0,0E0,0E0,1.429167E0,2.3012056E0,9.276748E-1,0E0,0E0,0E0,0E0,0E0,0E0,0E0,0E0,0E0,0E0,0E0,0E0,0E0,0E0,0E0,0E0,0E0],"parents":[2147483647,0,0,1,1,2,2,3,3,4,4,5,5,6,6,7,7,8,8,9,9,10,10,12,12,13,13,14,14,16,16,17,17,20,20,22,22,25,25,26,26,27,27,31,31,32,32,34,34,35,35,36,36,39,39,40,40,41,41],"right_children":[2,4,6,8,10,12,14,16,18,20,22,-1,24,26,28,-1,30,32,-1,-1,34,-1,36,-1,-1,38,40,42,-1,-1,-1,44,46,-1,48,50,52,-1,-1,54,56,58,-1,-1,-1,-1,-1,-1,-1,-1,-1,-1,-1,-1,-1,-1,-1,-1,-1],"split_conditions":[1.275E2,2.85E1,2.815E1,1.065E2,9.95E1,1.455E2,4.3400002E-1,3.05E1,4.5E0,6.15E1,2.635E1,-3.4906527E-1,1.65E1,2.45E1,3.95E2,-4.5931995E-1,3.435E1,5.315E-1,9.730115E-2,-5.7739867E-3,4.25E1,-3.6642513E-1,1.9999999E-1,-1.7149013E-1,1.6770284E-1,6.8E1,1.545E2,2.65E1,2.9123055E-2,-2.1860402E-2,-3.4390342E-1,6.5E0,7.8E1,-4.1795716E-1,2.15E1,1.175E2,8.5E1,2.6540479E-2,-2.9749355E-1,7.1E1,4.95E1,4.15E1,3.7536427E-1,-1.4767772E-1,-4.2880356E-1,1.7108342E-1,-2.689118E-1,-2.2754231E-1,8.8500395E-2,-3.2947516E-1,-4.0548686E-2,2.2452894E-1,-2.0622903E-1,1.8494563E-1,-5.033607E-2,3.054361E-1,-8.086084E-2,2.717925E-1,7.321976E-3],"split_indices":[1,7,5,1,1,1,6,3,0,1,5,0,3,7,4,0,5,6,0,0,7,0,6,0,0,2,1,3,0,0,0,3,4,0,3,1,2,0,0,2,7,4,0,0,0,0,0,0,0,0,0,0,0,0,0,0,0,0,0],"split_type":[0,0,0,0,0,0,0,0,0,0,0,0,0,0,0,0,0,0,0,0,0,0,0,0,0,0,0,0,0,0,0,0,0,0,0,0,0,0,0,0,0,0,0,0,0,0,0,0,0,0,0,0,0,0,0,0,0,0,0],"sum_hessian":[1.2319283E2,7.906617E1,4.4126663E1,4.5342167E1,3.3724003E1,7.7393146E0,3.638735E1,2.7631088E1,1.7711079E1,1.2313224E1,2.1410778E1,4.5238986E0,3.2154162E0,2.0490635E1,1.5896713E1,2.1450682E1,6.1804056E0,1.6489836E1,1.2212429E0,1.2038916E0,1.1109332E1,3.273668E0,1.813711E1,1.9778333E0,1.2375829E0,3.4524682E0,1.7038166E1,1.4680401E1,1.2163126E0,1.9029913E0,4.2774143E0,1.1457384E1,5.032453E0,8.201434E0,2.9078984E0,3.926798E0,1.4210312E1,1.4843864E0,1.9680817E0,8.634341E0,8.403825E0,5.120702E0,9.559698E0,2.6025803E0,8.854803E0,1.4517107E0,3.5807424E0,1.679363E0,1.2285354E0,2.7007318E0,1.2260664E0,1.1789174E1,2.4211378E0,2.4691873E0,6.1651535E0,7.1689787E0,1.2348461E0,3.4058056E0,1.7148964E0],"tree_param":{"num_deleted":"0","num_feature":"8","num_nodes":"59","size_leaf_vector":"0"}},{"base_weights":[-3.8459456E-1,-7.364934E-1,3.6020747E-1,-1.0308895E0,-3.5631073E-1,-4.029941E-1,6.07707E-1,-1.1139157E0,-2.4667619E-1,-1.2119983E0,-1.567167E-1,-9.556711E-1,-1.2974274E-1,4.2341807E-1,1.1489693E0,-1.1391002E0,-2.4075551E-1,-6.196198E-1,3.1216684E-1,-3.994129E-1,6.0857373E-1,-4.8310524E-1,7.1628326E-1,1.2781388E0,2.4162422E-1,1.2593883E0,2.984731E-1,-1.2453777E0,-8.633514E-1,-9.1149545E-1,-5.766389E-2,-1.086527E0,-1.3669245E-1,1.490868E-1,1.1153772E0,-9.827121E-2,-9.62425E-1,-1.7501466E-1,8.239868E-1,-1.2696748E0,-4.0311992E-1,-1.2887007E-1,-1.0715538E0,-1.3203609E0,-2.2980742E-1,7.881061E-2,-8.5341054E-1,6.5505475E-1,-6.52165E-1,4.9644634E-1,-5.2508897E-1,-5.750962E-1,6.9204026E-1,1.1311126E0,3.296827E-1],"categories":[],"categories_nodes":[],"categories_segments":[],"categories_sizes":[],"default_left":[true,true,true,true,true,true,true,true,true,false,true,false,true,true,true,true,false,true,false,true,true,true,false,false,true,false,false,true,true,false,false,true,true,true,false,true,false,true,true,false,false,false,false,false,false,false,false,false,false,false,false,false,false,false,false],"id":2,"left_children":[1,3,5,7,9,11,13,15,17,-1,19,-1,21,23,25,27,-1,29,-1,31,33,35,-1,-1,37,-1,-1,39,41,-1,-1,43,45,47,-1,49,-1,51,53,-1,-1,-1,-1,-1,-1,-1,-1,-1,-1,-1,-1,-1,-1,-1,-1],"loss_changes":[3.0472952E1,8.430073E0,7.357321E0,2.575119E0,5.929632E0,1.3592929E0,2.3894148E0,5.8986664E-1,1.334474E0,0E0,5.8526673E0,0E0,2.6567807E0,3.2792702E0,2.5702763E-1,3.6251068E-2,0E0,5.409633E-1,0E0,4.0998597E0,1.6194003E0,1.021284E0,0E0,0E0,5.0636306E0,0E0,0E0,2.1400452E-3,1.9738483E0,0E0,0E0,9.71787E-1,2.8735023E0,2.5256464E0,0E0,1.3951058E0,0E0,4.784104E0,9.373913E-1,0E0,0E0,0E0,0E0,0E0,0E0,0E0,0E0,0E0,0E0,0E0,0E0,0E0,0E0,0E0,0E0],"parents":[2147483647,0,0,1,1,2,2,3,3,4,4,5,5,6,6,7,7,8,8,10,10,12,12,13,13,14,14,15,15,17,17,19,19,20,20,21,21,24,24,27,27,28,28,31,31,32,32,33,33,35,35,37,37,38,38],"right_children":[2,4,6,8,10,12,14,16,18,-1,20,-1,22,24,26,28,-1,30,-1,32,34,36,-1,-1,38,-1,-1,40,42,-1,-1,44,46,48,-1,50,-1,52,54,-1,-1,-1,-1,-1,-1,-1,-1,-1,-1,-1,-1,-1,-1,-1,-1],"split_conditions":[1.305E2,2.85E1,2.99E1,3.95E1,2.635E1,2.65E1,6.99E-1,4.2800003E1,2.55E1,-3.635995E-1,6.35E-1,-2.8670132E-1,1.185E2,6.1E1,1.805E2,3.225E1,-7.222666E-2,1.115E2,9.365006E-2,9.35E1,1.37E2,6.1E1,2.1488498E-1,3.8344166E-1,4.05E1,3.7781653E-1,8.954193E-2,3.15E1,3.365E1,-2.7344865E-1,-1.7299168E-2,3.05E1,8.3E1,2.45E1,3.3461317E-1,7.45E1,-2.8872752E-1,1.655E2,4.65E1,-3.8090244E-1,-1.20935984E-1,-3.866102E-2,-3.2146615E-1,-3.961083E-1,-6.894223E-2,2.3643184E-2,-2.5602317E-1,1.9651644E-1,-1.956495E-1,1.489339E-1,-1.575267E-1,-1.7252886E-1,2.0761208E-1,3.3933377E-1,9.890482E-2],"split_indices":[1,7,5,3,5,7,6,5,7,0,6,0,4,2,1,5,0,4,0,1,4,7,0,0,7,0,0,3,5,0,0,3,2,4,0,2,0,1,7,0,0,0,0,0,0,0,0,0,0,0,0,0,0,0,0],"split_type":[0,0,0,0,0,0,0,0,0,0,0,0,0,0,0,0,0,0,0,0,0,0,0,0,0,0,0,0,0,0,0,0,0,0,0,0,0,0,0,0,0,0,0,0,0,0,0,0,0,0,0,0,0,0,0],"sum_hessian":[1.1425463E2,7.760127E1,3.6653355E1,4.277033E1,3.4830948E1,8.821791E0,2.7831564E1,3.8295486E1,4.474839E0,5.6284924E0,2.9202456E1,2.0923681E0,6.729422E0,2.209197E1,5.739593E0,3.6925865E1,1.3696235E0,2.618578E0,1.8562613E0,2.2534266E1,6.668191E0,5.0493956E0,1.6800267E0,2.8169787E0,1.9274992E1,4.654531E0,1.0850618E0,2.4115185E1,1.281068E1,1.3140599E0,1.3045181E0,5.3655725E0,1.7168694E1,4.1761284E0,2.4920628E0,3.4691348E0,1.5802608E0,1.164401E1,7.6309824E0,2.2945786E1,1.1693989E0,3.1869507E0,9.62373E0,3.7899554E0,1.575617E0,1.3884067E1,3.2846265E0,2.6715686E0,1.5045596E0,1.3813127E0,2.087822E0,8.197976E0,3.446033E0,3.9120302E0,3.7189522E0],"tree_param":{"num_deleted":"0","num_feature":"8","num_nodes":"55","size_leaf_vector":"0"}},{"base_weights":[-3.104492E-1,-7.798829E-1,1.00054435E-1,-9.0602785E-1,-2.6046988E-1,-6.6863793E-1,2.5784987E-1,-1.1551216E0,-6.995052E-1,-8.516632E-1,4.5742568E-1,-8.59624E-1,-7.345783E-2,1.0004074E-1,8.5987043E-1,-7.737648E-1,-6.9598067E-3,-5.302332E-2,-1.0169302E0,6.172703E-2,7.4086434E-1,-9.7358996E-1,-1.2793629E-1,-5.0300974E-1,4.271666E-1,-2.9825437E-1,3.1768122E-1,9.832496E-1,-3.2987863E-2,1.5807961E-1,-8.274067E-1,-7.5765145E-1,6.4482445E-1,-4.0665382E-1,5.718776E-1,-1.0796069E0,-2.6359552E-1,8.053866E-1,-6.6242653E-1,6.3993745E-2,7.786658E-1,3.2733613E-1,1.1643049E0,-8.853094E-1,-1.0347827E-1,-2.604309E-2,-8.3359545E-1,5.082568E-1,-2.8068385E-1,1.15693994E-1,1.0308843E0,-2.2158453E-1,7.208213E-1],"categories":[],"categories_nodes":[],"categories_segments":[],"categories_sizes":[],"default_left":[true,true,true,true,true,true,true,false,true,true,true,true,true,true,true,true,true,false,false,true,false,true,false,false,false,true,true,true,false,false,true,false,false,false,false,false,false,false,true,true,true,true,false,false,false,false,false,false,false,false,false,false,false],"id":3,"left_children":[1,3,5,7,9,11,13,-1,15,17,19,21,23,25,27,29,31,-1,-1,33,-1,35,-1,-1,-1,37,39,41,-1,-1,43,-1,-1,-1,-1,-1,-1,-1,45,47,49,51,-1,-1,-1,-1,-1,-1,-1,-1,-1,-1,-1],"loss_changes":[2.048687E1,3.0086975E0,7.133161E0,1.2209702E0,5.092146E0,1.0794897E0,4.505947E0,0E0,1.2339516E0,7.94199E-1,5.884495E-1,5.022397E-1,9.7514355E-1,3.5125213E0,1.1237788E0,1.2182674E0,2.1241643E0,0E0,0E0,1.057101E0,0E0,1.9357443E-1,0E0,0E0,0E0,6.340151E0,2.9884262E0,6.564083E-1,0E0,0E0,7.774124E-1,0E0,0E0,0E0,0E0,0E0,0E0,0E0,1.2213502E0,2.875588E0,1.4078269E0,8.683971E-1,0E0,0E0,0E0,0E0,0E0,0E0,0E0,0E0,0E0,0E0,0E0],"parents":[2147483647,0,0,1,1,2,2,3,3,4,4,5,5,6,6,8,8,9,9,10,10,11,11,12,12,13,13,14,14,15,15,16,16,19,19,21,21,25,25,26,26,27,27,30,30,38,38,39,39,40,40,41,41],"right_children":[2,4,6,8,10,12,14,-1,16,18,20,22,24,26,28,30,32,-1,-1,34,-1,36,-1,-1,-1,38,40,42,-1,-1,44,-1,-1,-1,-1,-1,-1,-1,46,48,50,52,-1,-1,-1,-1,-1,-1,-1,-1,-1,-1,-1],"split_conditions":[1.145E2,6.6050005E-1,2.745E1,2.9650002E1,2.5E0,1.525E2,1.655E2,-3.465365E-1,1.115E2,5E-1,8.8049996E-1,2.695E1,1.65E1,2.75E1,9.2E1,5.1E1,2.48E-1,-1.5906997E-2,-3.0507907E-1,4E1,2.2225931E-1,5.85E1,-3.8380887E-2,-1.5090293E-1,1.2814999E-1,6.5E0,5.28E-1,6.9E1,-9.896359E-3,4.7423884E-2,1.15E1,-2.2729544E-1,1.9344734E-1,-1.2199615E-1,1.7156328E-1,-3.2388207E-1,-7.907866E-2,2.41616E-1,6.1E1,2.42E-1,6.9E1,3.5E1,3.4929147E-1,-2.6559284E-1,-3.1043481E-2,-7.8129275E-3,-2.5007865E-1,1.5247704E-1,-8.420516E-2,3.47082E-2,3.092653E-1,-6.647536E-2,2.1624641E-1],"split_indices":[1,6,5,5,0,1,1,0,1,0,6,5,3,7,2,2,6,0,0,7,0,7,0,0,0,3,6,2,0,0,0,0,0,0,0,0,0,0,2,6,2,7,0,0,0,0,0,0,0,0,0,0,0],"split_type":[0,0,0,0,0,0,0,0,0,0,0,0,0,0,0,0,0,0,0,0,0,0,0,0,0,0,0,0,0,0,0,0,0,0,0,0,0,0,0,0,0,0,0,0,0,0,0,0,0,0,0,0,0],"sum_hessian":[1.0490756E2,4.8521133E1,5.6386433E1,3.8441E1,1.008013E1,9.05212E0,4.7334312E1,1.5342598E1,2.3098406E1,5.425692E0,4.654438E0,6.5166855E0,2.5354347E0,3.8427418E1,8.906897E0,2.0755571E1,2.3428345E0,1.1567285E0,4.2689633E0,2.4507759E0,2.203662E0,5.3523993E0,1.1642858E0,1.3620163E0,1.1734184E0,1.3447425E1,2.497999E1,7.736583E0,1.1703135E0,1.0237901E0,1.9731781E1,1.013319E0,1.3295155E0,1.3834623E0,1.0673134E0,4.204061E0,1.1483384E0,3.0357838E0,1.0411641E1,1.6847403E1,8.132588E0,2.2810183E0,5.455565E0,1.8064024E1,1.6677569E0,2.451063E0,7.9605784E0,7.1530647E0,9.694339E0,2.6432772E0,5.4893107E0,1.1348058E0,1.1462125E0],"tree_param":{"num_deleted":"0","num_feature":"8","num_nodes":"53","size_leaf_vector":"0"}},{"base_weights":[-2.4642025E-1,-6.461185E-1,8.358694E-2,-1.0292679E0,-4.5402974E-1,-5.740875E-1,2.133044E-1,-1.13126E0,-2.742162E-1,-7.453839E-1,7.854348E-2,-9.9486333E-1,-2.2253929E-1,8.383468E-2,7.4286824E-1,-1.1016551E0,-3.965143E-1,-6.439735E-1,2.9398447E-1,-5.1364064E-1,3.306943E-1,1.8828967E-1,-5.449966E-1,1.2688872E-1,9.5622337E-1,-6.7996585E-1,1.8640624E-1,9.462976E-1,1.2839645E-2,3.0417083E-2,-8.567312E-1,7.392899E-2,7.1022874E-1,-8.4429264E-1,3.3863494E-1,-5.499136E-1,7.377223E-1,1.9969334E-1,1.0652962E0,-8.774027E-1,1.4534764E-1,7.017037E-1,-6.1683995E-1,-7.0895565E-1,6.3937545E-1,-1.5785925E-1,3.589372E-1,9.402525E-1,-1.2414261E-1,-2.060429E-1,-1.0400506E0],"categories":[],"categories_nodes":[],"categories_segments":[],"categories_sizes":[],"default_left":[true,true,true,true,true,true,true,false,false,true,true,false,true,true,true,false,true,false,true,true,false,true,true,true,true,true,true,false,true,false,false,true,true,true,false,false,false,false,false,false,false,false,false,false,false,false,false,false,false,false,false],"id":4,"left_children":[1,3,5,7,9,11,13,-1,-1,15,17,-1,19,21,23,-1,25,-1,27,29,-1,31,33,35,37,39,41,-1,43,-1,-1,45,47,49,-1,-1,-1,-1,-1,-1,-1,-1,-1,-1,-1,-1,-1,-1,-1,-1,-1],"loss_changes":[1.2902143E1,2.7832432E0,4.7497463E0,7.647648E-1,4.900852E0,1.1404603E0,3.0938716E0,0E0,0E0,2.0822096E0,2.047891E0,0E0,1.1851017E0,2.6063156E0,1.0504532E0,0E0,2.076823E0,0E0,1.8005259E0,8.7018645E-1,0E0,1.9429392E0,1.7897893E0,1.8306314E0,3.2110262E-1,1.4565299E0,2.35594E0,0E0,4.0353394E0,0E0,0E0,1.9419482E0,1.2475886E0,3.521912E-1,0E0,0E0,0E0,0E0,0E0,0E0,0E0,0E0,0E0,0E0,0E0,0E0,0E0,0E0,0E0,0E0,0E0],"parents":[2147483647,0,0,1,1,2,2,3,3,4,4,5,5,6,6,9,9,10,10,12,12,13,13,14,14,16,16,18,18,19,19,21,21,22,22,23,23,24,24,25,25,26,26,28,28,31,31,32,32,33,33],"right_children":[2,4,6,8,10,12,14,-1,-1,16,18,-1,20,22,24,-1,26,-1,28,30,-1,32,34,36,38,40,42,-1,44,-1,-1,46,48,50,-1,-1,-1,-1,-1,-1,-1,-1,-1,-1,-1,-1,-1,-1,-1,-1,-1],"split_conditions":[1.145E2,2.455E-1,2.745E1,8.1E1,1.015E2,2.6E1,1.655E2,-3.3937803E-1,-8.226486E-2,2.55E1,6.1E1,-2.9845902E-1,1.525E2,2.305E2,3.0650002E-1,-3.3049655E-1,3.05E1,-1.9319206E-1,6.45E1,7.3E1,9.920829E-2,4.2199997E1,5.5E0,3.4550003E1,7E0,4.35E1,9.25E1,2.838893E-1,3.2E1,9.125126E-3,-2.5701937E-1,4.5E0,4E1,6.3E1,1.01590484E-1,-1.6497408E-1,2.213167E-1,5.9908003E-2,3.1958887E-1,-2.6322082E-1,4.3604292E-2,2.1051113E-1,-1.8505199E-1,-2.126867E-1,1.9181265E-1,-4.735778E-2,1.0768116E-1,2.8207576E-1,-3.7242785E-2,-6.1812874E-2,-3.120152E-1],"split_indices":[1,6,5,2,1,7,1,0,0,7,2,0,1,4,6,0,3,0,2,2,0,5,0,5,3,7,1,0,7,0,0,0,3,2,0,0,0,0,0,0,0,0,0,0,0,0,0,0,0,0,0],"split_type":[0,0,0,0,0,0,0,0,0,0,0,0,0,0,0,0,0,0,0,0,0,0,0,0,0,0,0,0,0,0,0,0,0,0,0,0,0,0,0,0,0,0,0,0,0,0,0,0,0,0,0],"sum_hessian":[9.6405716E1,4.3166004E1,5.323971E1,1.2959025E1,3.0206978E1,8.206524E0,4.5033188E1,1.0977882E1,1.9811428E0,1.926701E1,1.0939969E1,2.9025042E0,5.3040195E0,3.7116997E1,7.9161916E0,8.464817E0,1.0802193E1,2.0559397E0,8.884029E0,3.5222452E0,1.7817744E0,3.2430542E1,4.6864557E0,2.4467857E0,5.469406E0,7.1560183E0,3.6461742E0,1.9631801E0,6.920849E0,1.7146204E0,1.8076248E0,2.7538332E1,4.892208E0,3.5339773E0,1.1524785E0,1.2080269E0,1.2387587E0,1.0458949E0,4.4235115E0,5.723654E0,1.4323647E0,2.298231E0,1.3479432E0,3.1548183E0,3.7660306E0,1.5433156E1,1.2105177E1,3.7354898E0,1.156718E0,1.3112649E0,2.2227125E0],"tree_param":{"num_deleted":"0","num_feature":"8","num_nodes":"51","size_leaf_vector":"0"}},{"base_weights":[-2.035134E-1,-4.3457815E-1,2.2169763E-1,-9.9858135E-1,-2.8546622E-1,-5.4395817E-2,5.3015167E-1,-6.920184E-1,-7.782043E-2,-2.3229201E-1,5.4806983E-1,7.9153943E-1,1.365522E-1,7.3033884E-2,-8.4361595E-1,-2.0696123E-1,7.422271E-1,-7.690813E-1,1.1816093E-2,-2.3242205E-2,9.513986E-1,9.661711E-1,-2.573082E-2,-1.1479678E0,5.5236816E-1,4.7393766E-1,-4.4334233E-1,-1.0009127E0,-3.7957186E-1,1.6550899E-1,-4.1480416E-1,7.6013826E-2,1.0316337E0,1.1499775E-1,-1.1445576E0,2.808664E-1,-6.092893E-1,1.051426E0,3.2981268E-1,8.044895E-1,-2.3080935E-1,-1.0788773E0,-2.1332881E-1,-8.207974E-1,1.40584E-1,4.5053115E-1,-4.1611347E-1,-6.731368E-1,4.456786E-2,-1.4527935E-1,8.742534E-1,-3.3516046E-2,-8.9560884E-1,8.9876354E-1,2.4247809E-1],"categories":[],"categories_nodes":[],"categories_segments":[],"categories_sizes":[],"default_left":[true,true,true,false,true,true,true,true,true,true,true,true,true,true,true,true,true,true,true,false,false,true,false,false,true,false,false,true,true,true,true,false,false,false,false,true,true,false,false,true,false,false,false,false,false,false,false,false,false,false,false,false,false,false,false],"id":5,"left_children":[1,3,5,-1,7,9,11,13,15,17,19,21,23,25,27,29,31,33,35,-1,-1,37,-1,-1,39,-1,-1,41,43,45,47,-1,-1,-1,-1,49,51,-1,-1,53,-1,-1,-1,-1,-1,-1,-1,-1,-1,-1,-1,-1,-1,-1,-1],"loss_changes":[8.971579E0,4.6654854E0,2.7937727E0,0E0,3.9946127E0,2.0606642E0,1.4791508E0,1.9273124E0,3.634651E0,1.9259968E0,1.0382826E0,1.3182664E0,4.5680704E0,9.513888E-1,6.0589504E-1,2.3276558E0,8.258834E-1,1.6546636E0,2.0161533E0,0E0,0E0,5.9735775E-2,0E0,0E0,1.4176581E0,0E0,0E0,3.516903E-1,1.2697933E0,2.0385041E0,2.2864532E0,0E0,0E0,0E0,0E0,2.248138E0,5.721388E-1,0E0,0E0,4.3952942E-2,0E0,0E0,0E0,0E0,0E0,0E0,0E0,0E0,0E0,0E0,0E0,0E0,0E0,0E0,0E0],"parents":[2147483647,0,0,1,1,2,2,4,4,5,5,6,6,7,7,8,8,9,9,10,10,11,11,12,12,13,13,14,14,15,15,16,16,17,17,18,18,21,21,24,24,27,27,28,28,29,29,30,30,35,35,36,36,39,39],"right_children":[2,4,6,-1,8,10,12,14,16,18,20,22,24,26,28,30,32,34,36,-1,-1,38,-1,-1,40,-1,-1,42,44,46,48,-1,-1,-1,-1,50,52,-1,-1,54,-1,-1,-1,-1,-1,-1,-1,-1,-1,-1,-1,-1,-1,-1,-1],"split_conditions":[1.295E2,2.645E1,3.425E1,-2.995744E-1,2.55E1,3.15E1,4.005E1,5E0,8.6E-1,2.65E1,1.425E2,2.865E2,4.13E1,2.905E-1,3.45E1,3.245E1,1.07E2,1.375E2,5.5E1,-6.9726617E-3,2.8541958E-1,6.72E-1,-7.719246E-3,-3.4439036E-1,4.05E1,1.421813E-1,-1.330027E-1,3.635E1,5.095E-1,2.45E1,3.775E1,2.2804148E-2,3.0949014E-1,3.449933E-2,-3.4336728E-1,4.05E1,4.5E0,3.1542784E-1,9.894381E-2,4.2E1,-6.9242805E-2,-3.236632E-1,-6.399865E-2,-2.4623923E-1,4.2175204E-2,1.3515936E-1,-1.24834046E-1,-2.0194104E-1,1.3370358E-2,-4.3583807E-2,2.6227602E-1,-1.0054814E-2,-2.6868266E-1,2.6962906E-1,7.274343E-2],"split_indices":[1,5,5,0,7,3,5,3,6,7,4,4,5,6,3,5,1,1,7,0,0,6,0,0,3,0,0,5,6,4,5,0,0,0,0,7,0,0,0,7,0,0,0,0,0,0,0,0,0,0,0,0,0,0,0],"split_type":[0,0,0,0,0,0,0,0,0,0,0,0,0,0,0,0,0,0,0,0,0,0,0,0,0,0,0,0,0,0,0,0,0,0,0,0,0,0,0,0,0,0,0,0,0,0,0,0,0,0,0,0,0,0,0],"sum_hessian":[8.933199E1,5.786528E1,3.1466713E1,1.0908384E1,4.6956898E1,1.703898E1,1.4427733E1,1.508639E1,3.1870508E1,1.3629028E1,3.4099512E0,8.062459E0,6.365274E0,2.5807276E0,1.2505662E1,2.8180305E1,3.690202E0,3.588158E0,1.0040871E1,1.8010921E0,1.6088592E0,6.4928875E0,1.5695721E0,1.1260309E0,5.239243E0,1.4990679E0,1.0816598E0,8.475719E0,4.0299425E0,1.0165911E1,1.8014395E1,1.4999579E0,2.190244E0,1.2764399E0,2.311718E0,7.388233E0,2.6526375E0,5.1505914E0,1.342296E0,3.9427702E0,1.2964729E0,7.3757224E0,1.0999973E0,1.8676839E0,2.1622586E0,6.973808E0,3.1921024E0,1.1232398E1,6.781997E0,4.7396116E0,2.6486216E0,1.2519969E0,1.4006406E0,2.8632812E0,1.079489E0],"tree_param":{"num_deleted":"0","num_feature":"8","num_nodes":"55","size_leaf_vector":"0"}},{"base_weights":[-1.6603298E-1,-4.6698794E-1,5.6010697E-2,-8.551619E-1,-2.8972438E-1,-4.4007983E-2,5.185612E-1,-9.778942E-1,-1.4822656E-1,-6.1988914E-1,1.1094332E-1,4.8911768E-1,-1.2674628E-1,-4.375257E-2,7.739224E-1,-8.354907E-1,-8.5935906E-2,-4.4962758E-1,2.593499E-1,8.194696E-2,6.5288883E-1,-4.6797743E-1,6.778864E-2,3.0949846E-1,-3.5957608E-1,1.6431849E-1,9.7640395E-1,-9.493843E-1,5.2431654E-2,6.200518E-1,-5.152893E-1,4.035518E-1,-4.8876056E-1,2.3437174E-1,8.7106776E-1,-5.5958796E-1,2.862731E-1,6.4756364E-1,-3.8255073E-2,-1.0204399E0,-1.9784516E-1,1.2173545E-1,-8.111973E-1,-1.82962E-1,6.269035E-1,-7.8966814E-1,-2.4533056E-1,8.490306E-1,1.6856664E-1,-1.571913E-1,7.2106105E-1],"categories":[],"categories_nodes":[],"categories_segments":[],"categories_sizes":[],"default_left":[true,true,true,true,true,true,true,false,false,true,true,true,true,true,true,true,true,false,true,false,true,true,true,false,false,false,false,true,false,false,true,true,false,false,false,true,false,true,true,false,false,false,false,false,false,false,false,false,false,false,false],"id":6,"left_children":[1,3,5,7,9,11,13,-1,-1,15,17,19,21,23,25,27,29,-1,31,-1,33,35,37,-1,-1,-1,-1,39,-1,-1,41,43,-1,-1,-1,45,-1,47,49,-1,-1,-1,-1,-1,-1,-1,-1,-1,-1,-1,-1],"loss_changes":[5.6108427E0,2.2010288E0,2.2889767E0,7.7860117E-1,3.500775E0,1.8791683E0,1.2956071E0,0E0,0E0,1.583075E0,1.1622297E0,3.292805E-1,2.4517336E0,5.230379E-1,5.920446E-1,1.0737638E0,1.9107207E0,0E0,1.3377287E0,0E0,1.5654898E-1,1.083586E0,1.5060166E0,0E0,0E0,0E0,0E0,2.8014946E-1,0E0,0E0,8.170179E-1,1.3475566E0,0E0,0E0,0E0,6.923418E-1,0E0,2.2176099E-1,2.0379875E0,0E0,0E0,0E0,0E0,0E0,0E0,0E0,0E0,0E0,0E0,0E0,0E0],"parents":[2147483647,0,0,1,1,2,2,3,3,4,4,5,5,6,6,9,9,10,10,11,11,12,12,13,13,14,14,15,15,16,16,18,18,20,20,21,21,22,22,27,27,30,30,31,31,35,35,37,37,38,38],"right_children":[2,4,6,8,10,12,14,-1,-1,16,18,20,22,24,26,28,30,-1,32,-1,34,36,38,-1,-1,-1,-1,40,-1,-1,42,44,-1,-1,-1,46,-1,48,50,-1,-1,-1,-1,-1,-1,-1,-1,-1,-1,-1,-1],"split_conditions":[1.145E2,2.455E-1,1.655E2,8.1E1,9.95E1,5.3E1,1.65E1,-2.9336828E-1,-4.446797E-2,3.05E1,2.625E1,1.24E2,2.85E1,1.825E2,8E1,4.35E1,8.05E1,-1.3488828E-1,8.3E1,2.458409E-2,2.4E1,4.875E1,1.195E2,9.284954E-2,-1.0787283E-1,4.929555E-2,2.929212E-1,9.49E-1,1.5729496E-2,1.8601555E-1,2.4E1,2.45E1,-1.4662817E-1,7.0311524E-2,2.6132035E-1,4.215E-1,8.588193E-2,3.6E1,7.3749995E-1,-3.0613196E-1,-5.935355E-2,3.6520638E-2,-2.433592E-1,-5.4888602E-2,1.8807106E-1,-2.3690045E-1,-7.359917E-2,2.5470918E-1,5.0569996E-2,-4.7157396E-2,2.1631832E-1],"split_indices":[1,6,1,2,1,2,3,0,0,3,5,1,7,1,4,7,1,0,2,0,3,5,1,0,0,0,0,6,0,0,4,7,0,0,0,6,0,7,6,0,0,0,0,0,0,0,0,0,0,0,0],"split_type":[0,0,0,0,0,0,0,0,0,0,0,0,0,0,0,0,0,0,0,0,0,0,0,0,0,0,0,0,0,0,0,0,0,0,0,0,0,0,0,0,0,0,0,0,0,0,0,0,0,0,0],"sum_hessian":[8.257163E1,3.458817E1,4.7983463E1,9.644432E0,2.4943737E1,4.019651E1,7.7869534E0,7.891149E0,1.753283E0,1.3375061E1,1.1568677E1,4.7403507E0,3.5456158E1,2.690671E0,5.0962825E0,9.125576E0,4.249485E0,1.9967449E0,9.571932E0,1.7901134E0,2.9502375E0,1.2363639E1,2.309252E1,1.279532E0,1.411139E0,1.7223598E0,3.3739228E0,8.026765E0,1.0988111E0,1.4390674E0,2.8104174E0,8.411204E0,1.1607276E0,1.7217485E0,1.228489E0,1.1254737E1,1.1089019E0,2.7810507E0,2.0311468E1,7.006521E0,1.0202436E0,1.0781028E0,1.7323146E0,2.369587E0,6.0416174E0,5.6242194E0,5.630518E0,1.4138606E0,1.3671901E0,1.8246407E1,2.065061E0],"tree_param":{"num_deleted":"0","num_feature":"8","num_nodes":"51","size_leaf_vector":"0"}},{"base_weights":[-1.2825353E-1,-3.11741E-1,1.8596435E-1,-8.71965E-1,-1.9148065E-1,-2.916875E-1,2.906305E-1,-6.059688E-1,-5.2183107E-2,2.43009E-1,-5.668072E-1,1.7994303E-1,7.5477576E-1,1.12591326E-1,-7.816513E-1,-1.7504095E-1,4.7260666E-1,4.5221113E-2,-7.8635854E-1,2.761577E-1,-4.2372736E-1,8.6437225E-1,1.8998125E-1,-9.3999356E-1,-3.4351555E-1,-3.22535E-3,-4.0942243E-1,6.3664204E-1,-9.5528476E-2,7.6082706E-1,1.2118293E-1,-6.23848E-3,-6.8221766E-1,1.6893044E-1,-5.8935344E-1,3.2112578E-1,-3.6287495E-1,-7.522544E-1,-4.3531097E-2,8.657423E-1,3.659699E-2,1.0674329E0,-1.1958915E-1,-1.8892446E-1,4.4184577E-1],"categories":[],"categories_nodes":[],"categories_segments":[],"categories_sizes":[],"default_left":[true,true,true,false,true,true,true,true,true,false,true,true,true,false,true,true,true,false,false,true,true,false,false,false,true,true,true,true,false,true,true,false,false,false,false,false,false,false,false,false,false,false,false,false,false],"id":7,"left_children":[1,3,5,-1,7,9,11,13,15,-1,17,19,21,-1,23,25,27,-1,-1,29,31,-1,-1,-1,33,35,37,39,-1,41,43,-1,-1,-1,-1,-1,-1,-1,-1,-1,-1,-1,-1,-1,-1],"loss_changes":[4.579022E0,3.1935844E0,1.5613732E0,0E0,2.4133277E0,9.921031E-1,1.134572E0,1.4207573E0,2.1967673E0,0E0,5.91161E-1,1.3529584E0,1.1114144E-1,0E0,2.7436447E-1,1.098002E0,6.656723E-1,0E0,0E0,1.3318707E0,3.5401547E-1,0E0,0E0,0E0,5.86004E-1,2.0715795E0,1.4146905E0,6.785791E-1,0E0,1.3164954E0,1.6302955E0,0E0,0E0,0E0,0E0,0E0,0E0,0E0,0E0,0E0,0E0,0E0,0E0,0E0,0E0],"parents":[2147483647,0,0,1,1,2,2,4,4,5,5,6,6,7,7,8,8,10,10,11,11,12,12,14,14,15,15,16,16,19,19,20,20,24,24,25,25,26,26,27,27,29,29,30,30],"right_children":[2,4,6,-1,8,10,12,14,16,-1,18,20,22,-1,24,26,28,-1,-1,30,32,-1,-1,-1,34,36,38,40,-1,42,44,-1,-1,-1,-1,-1,-1,-1,-1,-1,-1,-1,-1,-1,-1],"split_conditions":[1.295E2,2.645E1,2.815E1,-2.615895E-1,2.45E1,2.535E1,6.99E-1,5.5E0,7.1000004E-1,7.29027E-2,2.85E1,6.12E-1,1.795E2,3.37774E-2,3.45E1,2.1E1,3.6699997E1,1.3566335E-2,-2.3590757E-1,1.375E2,1.505E2,2.5931168E-1,5.699438E-2,-2.8199807E-1,3.515E1,3.405E1,1.235E2,3.35E1,-2.8658545E-2,1.35E2,3.0049998E-1,-1.871544E-3,-2.046653E-1,5.0679136E-2,-1.7680603E-1,9.6337736E-2,-1.0886249E-1,-2.2567634E-1,-1.305933E-2,2.597227E-1,1.0979097E-2,3.202299E-1,-3.5876747E-2,-5.667734E-2,1.3255374E-1],"split_indices":[1,5,5,0,7,5,6,3,6,0,7,6,1,0,3,4,5,0,0,1,1,0,0,0,5,5,4,7,0,4,6,0,0,0,0,0,0,0,0,0,0,0,0,0,0],"split_type":[0,0,0,0,0,0,0,0,0,0,0,0,0,0,0,0,0,0,0,0,0,0,0,0,0,0,0,0,0,0,0,0,0,0,0,0,0,0,0,0,0,0,0,0,0],"sum_hessian":[7.741552E1,4.887996E1,2.8535557E1,7.533775E0,4.1346188E1,4.8078294E0,2.3727728E1,9.5574E0,3.1788786E1,1.6730208E0,3.1348085E0,2.0279291E1,3.4484358E0,1.9481957E0,7.6092043E0,2.6298527E1,5.4902587E0,1.0372808E0,2.0975277E0,1.7959406E1,2.319885E0,2.4438047E0,1.0046312E0,4.747881E0,2.8613234E0,1.5759579E1,1.0538949E1,4.166655E0,1.3236036E0,3.4040844E0,1.4555322E1,1.2787324E0,1.0411525E0,1.0290725E0,1.8322508E0,8.342754E0,7.416824E0,4.895771E0,5.643178E0,2.6949236E0,1.4717314E0,2.367264E0,1.0368205E0,7.6083E0,6.947022E0],"tree_param":{"num_deleted":"0","num_feature":"8","num_nodes":"45","size_leaf_vector":"0"}},{"base_weights":[-1.0389107E-1,-2.1834774E-1,2.5350633E-1,-7.0839405E-1,-1.19610116E-1,8.668008E-2,8.077556E-1,-8.9433885E-1,-3.782183E-1,-4.4319543E-1,-4.8604637E-2,8.0053604E-1,-6.272177E-2,5.591759E-2,-5.913843E-1,4.1794158E-3,-7.8769505E-1,5.34393E-1,-1.0364135E-1,-3.395399E-1,3.25461E-1,-4.577564E-1,4.568141E-1,-1.0689294E0,1.4278528E-2,7.832193E-1,1.6952269E-2,-2.2808367E-1,1.9973703E-1,4.258079E-1,-7.6835227E-1,-2.3541398E-1,6.832611E-1,2.7253997E-1,-3.4680226E-1,6.85143E-1,-1.1293023E-1,-1.2721741E-1,8.442188E-1,-1.4444235E-1,-9.2757213E-1,-6.900213E-1,3.134105E-1,7.995897E-1,1.6844688E-1],"categories":[],"categories_nodes":[],"categories_segments":[],"categories_sizes":[],"default_left":[true,true,true,true,true,true,false,false,true,true,true,false,true,false,false,true,true,true,true,true,true,false,false,false,false,false,false,true,true,true,true,true,true,false,false,false,false,false,false,false,false,false,false,false,false],"id":8,"left_children":[1,3,5,7,9,11,-1,-1,13,15,17,-1,19,-1,-1,21,23,25,27,29,31,-1,-1,-1,-1,-1,-1,33,35,37,39,41,43,-1,-1,-1,-1,-1,-1,-1,-1,-1,-1,-1,-1],"loss_changes":[3.0881338E0,2.6584048E0,1.6356145E0,2.3296404E-1,1.0902526E0,1.6818731E0,0E0,0E0,5.0363433E-1,1.3262967E0,1.3646476E0,0E0,1.5696095E0,0E0,0E0,1.1979359E0,1.1102705E0,4.6081924E-1,1.484789E0,3.0891201E0,1.3976295E0,0E0,0E0,0E0,0E0,0E0,0E0,1.7289513E0,1.8412397E0,9.555485E-1,4.372437E-1,1.0006969E0,1.0599232E-1,0E0,0E0,0E0,0E0,0E0,0E0,0E0,0E0,0E0,0E0,0E0,0E0],"parents":[2147483647,0,0,1,1,2,2,3,3,4,4,5,5,8,8,9,9,10,10,12,12,15,15,16,16,17,17,18,18,19,19,20,20,27,27,28,28,29,29,30,30,31,31,32,32],"right_children":[2,4,6,8,10,12,-1,-1,14,16,18,-1,20,-1,-1,22,24,26,28,30,32,-1,-1,-1,-1,-1,-1,34,36,38,40,42,44,-1,-1,-1,-1,-1,-1,-1,-1,-1,-1,-1,-1],"split_conditions":[1.445E2,2.695E1,7.5E0,2.5E0,2.015E-1,6.1E1,2.4232669E-1,-2.6830167E-1,4.5E0,7.1E1,2.35E-1,2.4016082E-1,1.655E2,1.6775278E-2,-1.774153E-1,1.17E2,5.5E0,2.6E1,3.4E1,1.95E1,3.2700002E-1,-1.3732693E-1,1.3704424E-1,-3.2067883E-1,4.2835586E-3,2.3496579E-1,5.0856806E-3,2.915E1,3.515E1,3.185E1,1.505E2,2.85E1,8.25E-1,8.176199E-2,-1.0404068E-1,2.055429E-1,-3.387907E-2,-3.8165227E-2,2.5326565E-1,-4.3332707E-2,-2.7827165E-1,-2.070064E-1,9.402315E-2,2.3987691E-1,5.0534066E-2],"split_indices":[1,5,0,0,6,2,0,0,0,2,6,0,1,0,0,1,0,3,3,3,6,0,0,0,0,0,0,5,5,5,1,3,6,0,0,0,0,0,0,0,0,0,0,0,0],"split_type":[0,0,0,0,0,0,0,0,0,0,0,0,0,0,0,0,0,0,0,0,0,0,0,0,0,0,0,0,0,0,0,0,0,0,0,0,0,0,0,0,0,0,0,0,0],"sum_hessian":[7.313931E1,5.5692753E1,1.7446564E1,8.304088E0,4.7388664E1,1.4299022E1,3.1475425E0,4.2192564E0,4.0848308E0,7.584224E0,3.980444E1,1.7204201E0,1.2578602E1,1.5881234E0,2.4967072E0,3.7292309E0,3.8549933E0,2.6822214E0,3.712222E1,7.4156885E0,5.1629133E0,1.8400522E0,1.8891786E0,2.6076682E0,1.2473252E0,1.4643877E0,1.2178336E0,2.6500292E1,1.0621927E1,2.6654243E0,4.750264E0,2.1440408E0,3.0188725E0,4.8313446E0,2.1668947E1,3.694715E0,6.927212E0,1.4477905E0,1.217634E0,1.3535411E0,3.3967228E0,1.0319638E0,1.112077E0,2.011245E0,1.0076274E0],"tree_param":{"num_deleted":"0","num_feature":"8","num_nodes":"45","size_leaf_vector":"0"}},{"base_weights":[-7.510063E-2,-5.7247627E-1,-3.250437E-3,-7.667689E-1,1.7373748E-1,-3.2191208E-1,8.160219E-2,-8.604041E-1,-1.644429E-1,-7.8232723E-1,-1.5961936E-2,1.3571642E-1,-5.632449E-1,2.3180744E-1,-6.1504525E-1,6.2699884E-2,4.6965247E-1,4.1871496E-2,-8.8506985E-1,-2.9619575E-1,6.0842526E-1,1.5723117E-1,-5.8561784E-1,6.1844915E-1,-2.6349014E-1,1.7816883E-1,-6.971316E-1,8.608797E-1,4.4685744E-2,7.4195236E-2,9.220269E-1,-9.429144E-1,2.3171951E-1,7.542176E-1,7.933353E-2],"categories":[],"categories_nodes":[],"categories_segments":[],"categories_sizes":[],"default_left":[true,true,true,true,false,true,true,false,false,false,true,true,true,true,false,true,true,false,false,true,true,true,true,true,false,false,false,false,false,false,false,false,false,false,false],"id":9,"left_children":[1,3,5,7,-1,9,11,-1,-1,-1,13,15,17,19,-1,21,23,-1,-1,25,27,29,31,33,-1,-1,-1,-1,-1,-1,-1,-1,-1,-1,-1],"loss_changes":[2.5276964E0,1.4277618E0,1.7258122E0,2.6847982E-1,0E0,1.8778455E0,1.836393E0,0E0,0E0,0E0,1.490802E0,1.1247435E0,8.3528495E-1,1.602386E0,0E0,2.5433488E0,1.0726618E0,0E0,0E0,8.184105E-1,6.0221183E-1,2.1984556E0,1.7666942E0,4.6943307E-1,0E0,0E0,0E0,0E0,0E0,0E0,0E0,0E0,0E0,0E0,0E0],"parents":[2147483647,0,0,1,1,2,2,3,3,5,5,6,6,10,10,11,11,12,12,13,13,15,15,16,16,19,19,20,20,21,21,22,22,23,23],"right_children":[2,4,6,8,-1,10,12,-1,-1,-1,14,16,18,20,-1,22,24,-1,-1,26,28,30,32,34,-1,-1,-1,-1,-1,-1,-1,-1,-1,-1,-1],"split_conditions":[2.645E1,4.95E1,2.45E1,6.755E-1,5.2121248E-2,1.125E2,5.65E1,-2.5812122E-1,-4.9332872E-2,-2.3469818E-1,1.97E2,7.1000004E-1,4.5E0,3.27E1,-1.8451358E-1,5.895E-1,1.3555E0,1.2561449E-2,-2.6552096E-1,8E0,2.35E1,5.28E-1,3.95E1,3.6699997E1,-7.904705E-2,5.345065E-2,-2.0913948E-1,2.5826392E-1,1.34057235E-2,2.2258572E-2,2.7660808E-1,-2.8287435E-1,6.9515854E-2,2.262653E-1,2.380006E-2],"split_indices":[5,7,7,6,0,1,7,0,0,0,4,6,0,5,0,6,6,0,0,3,7,6,7,5,0,0,0,0,0,0,0,0,0,0,0],"split_type":[0,0,0,0,0,0,0,0,0,0,0,0,0,0,0,0,0,0,0,0,0,0,0,0,0,0,0,0,0,0,0,0,0,0,0],"sum_hessian":[6.978351E1,7.9288955E0,6.185461E1,6.2690654E0,1.6598303E0,1.2419553E1,4.943506E1,5.0547976E0,1.2142675E0,4.3365574E0,8.082996E0,4.633616E1,3.0988975E0,6.151795E0,1.9312013E0,3.899705E1,7.3391104E0,1.3779255E0,1.7209718E0,2.6500573E0,3.5017374E0,3.4695564E1,4.301486E0,6.230937E0,1.1081733E0,1.4683758E0,1.1816816E0,2.0545697E0,1.4471675E0,3.2287083E1,2.4084823E0,2.8861656E0,1.4153203E0,4.658716E0,1.5722208E0],"tree_param":{"num_deleted":"0","num_feature":"8","num_nodes":"35","size_leaf_vector":"0"}},{"base_weights":[-6.587766E-2,-1.6286328E-1,2.3689316E-1,-5.742041E-1,-9.382534E-2,4.7202012E-1,-3.9329706E-3,-8.0106294E-1,-2.4395898E-1,2.1411197E-1,-1.4960624E-1,-3.3871877E-1,6.366001E-1,-5.101877E-1,2.8462285E-1,-5.89363E-1,7.061372E-2,8.191933E-1,-2.7156952E-1,-3.0781963E-1,2.2558704E-2,8.3445644E-1,-1.8629351E-1,-9.3754303E-1,1.331123E-1,-1.6129473E-1,7.458366E-1,3.008958E-1,-2.0203274E-1,-4.8735887E-1,2.2262387E-1,-3.9582652E-1,2.903652E-1,-3.8800922E-1,2.1769588E-1,2.5577456E-1,9.1950095E-1,1.642735E-1,-3.960493E-1,-2.1117872E-2,-7.357657E-1,-5.808173E-1,-7.78098E-2,4.4828594E-1,2.8949569E-3,3.419022E-1,-7.894018E-1,3.575847E-1,-2.5994694E-1],"categories":[],"categories_nodes":[],"categories_segments":[],"categories_sizes":[],"default_left":[true,true,true,true,true,true,true,false,true,true,true,false,true,true,true,false,true,false,true,true,true,true,false,false,false,true,false,false,false,true,false,true,true,true,true,false,false,false,false,false,false,false,false,false,false,false,false,false,false],"id":10,"left_children":[1,3,5,7,9,11,13,-1,15,17,19,-1,21,23,25,-1,27,-1,29,31,33,35,-1,-1,-1,37,-1,-1,-1,39,-1,41,43,45,47,-1,-1,-1,-1,-1,-1,-1,-1,-1,-1,-1,-1,-1,-1],"loss_changes":[2.0323951E0,1.4233524E0,9.5770997E-1,3.5002565E-1,8.176738E-1,1.35641E0,1.5082974E0,0E0,5.199832E-1,2.4047465E0,1.0777583E0,0E0,1.369103E0,1.1545551E0,1.4746399E0,0E0,2.6152614E-1,0E0,6.278826E-1,1.197007E0,1.6673977E0,6.9536686E-2,0E0,0E0,0E0,3.8379282E-1,0E0,0E0,0E0,4.1341E-1,0E0,1.0338316E0,1.4456573E-1,2.2400951E0,1.0305982E0,0E0,0E0,0E0,0E0,0E0,0E0,0E0,0E0,0E0,0E0,0E0,0E0,0E0,0E0],"parents":[2147483647,0,0,1,1,2,2,3,3,4,4,5,5,6,6,8,8,9,9,10,10,12,12,13,13,14,14,16,16,18,18,19,19,20,20,21,21,25,25,29,29,31,31,32,32,33,33,34,34],"right_children":[2,4,6,8,10,12,14,-1,16,18,20,-1,22,24,26,-1,28,-1,30,32,34,36,-1,-1,-1,38,-1,-1,-1,40,-1,42,44,46,48,-1,-1,-1,-1,-1,-1,-1,-1,-1,-1,-1,-1,-1,-1],"split_conditions":[1.445E2,2.695E1,4.05E1,2.5E0,5E-1,2.745E1,1.42E2,-2.403189E-1,1.055E2,6.7E1,4.5E0,-1.0161564E-1,8.9E1,3.45E-1,1.655E2,-1.768089E-1,5.5E0,2.45758E-1,3E1,4.15E1,2.5849998E-1,2.65E1,-5.5888057E-2,-2.8126293E-1,3.993369E-2,1.565E2,2.23751E-1,9.0268746E-2,-6.0609825E-2,3.2450002E-1,6.678716E-2,5.28E-1,8.1E1,4.05E1,8.3E1,7.673237E-2,2.758503E-1,4.928205E-2,-1.1881479E-1,-6.335362E-3,-2.2072972E-1,-1.742452E-1,-2.3342941E-2,1.3448578E-1,8.684871E-4,1.0257066E-1,-2.3682056E-1,1.0727542E-1,-7.798409E-2],"split_indices":[1,5,4,0,0,5,4,0,1,2,0,0,2,6,1,0,0,0,7,7,6,7,0,0,0,1,0,0,0,6,0,6,2,7,2,0,0,0,0,0,0,0,0,0,0,0,0,0,0],"split_type":[0,0,0,0,0,0,0,0,0,0,0,0,0,0,0,0,0,0,0,0,0,0,0,0,0,0,0,0,0,0,0,0,0,0,0,0,0,0,0,0,0,0,0,0,0,0,0,0,0],"sum_hessian":[6.689898E1,5.101848E1,1.5880499E1,6.280555E0,4.4737923E1,7.549578E0,8.330921E0,2.877927E0,3.4026277E0,6.4258285E0,3.8312096E1,1.0954062E0,6.454172E0,2.7456906E0,5.58523E0,1.2054721E0,2.1971555E0,2.5554538E0,3.8703747E0,1.9554384E1,1.875771E1,5.1918044E0,1.262368E0,1.3749145E0,1.370776E0,3.1703284E0,2.4149017E0,1.1349472E0,1.0622084E0,2.7036545E0,1.1667202E0,1.7341356E1,2.2130287E0,5.7246575E0,1.3033052E1,1.178729E0,4.0130754E0,1.454037E0,1.7162913E0,1.3169156E0,1.3867389E0,1.0441277E1,6.9000797E0,1.0672964E0,1.1457323E0,2.0837243E0,3.6409335E0,1.0275104E1,2.7579484E0],"tree_param":{"num_deleted":"0","num_feature":"8","num_nodes":"49","size_leaf_vector":"0"}},{"base_weights":[-5.5225313E-2,-3.8938892E-1,2.380469E-2,-8.289989E-1,-1.3825703E-1,-1.1740213E-2,6.143291E-1,2.2993094E-1,-5.7135564E-1,5.4903954E-2,-5.8188117E-1,-3.039825E-1,4.9096808E-1,-6.9635123E-1,-7.389863E-2,-6.550917E-2,2.2258864E-1,-7.2535384E-1,-1.1066216E-2,1.4716758E-1,7.128232E-1,-3.5838693E-1,7.881268E-2,-1.9000961E-1,4.0108538E-1,3.1679893E-1,-5.352138E-1,4.2294967E-1,-1.4924361E-1,-3.3489627E-1,2.781614E-1,1.5586963E-1,6.120678E-1],"categories":[],"categories_nodes":[],"categories_segments":[],"categories_sizes":[],"default_left":[true,true,true,false,true,true,false,true,true,true,true,false,true,false,false,true,true,false,false,false,false,true,true,true,true,false,false,false,false,false,false,false,false],"id":11,"left_children":[1,3,5,-1,7,9,-1,11,13,15,17,-1,19,-1,-1,21,23,-1,-1,-1,-1,25,27,29,31,-1,-1,-1,-1,-1,-1,-1,-1],"loss_changes":[1.7209833E0,1.2603812E0,1.1272672E0,0E0,1.5867314E0,1.9816542E0,0E0,9.3614495E-1,2.2714603E-1,9.6067643E-1,4.38838E-1,0E0,2.1349823E-1,0E0,0E0,1.2136642E0,1.5352674E0,0E0,0E0,0E0,0E0,1.2963699E0,1.6019183E0,5.4499024E-1,6.3667846E-1,0E0,0E0,0E0,0E0,0E0,0E0,0E0,0E0],"parents":[2147483647,0,0,1,1,2,2,4,4,5,5,7,7,8,8,9,9,10,10,12,12,15,15,16,16,21,21,22,22,23,23,24,24],"right_children":[2,4,6,-1,8,10,-1,12,14,16,18,-1,20,-1,-1,22,24,-1,-1,-1,-1,26,28,30,32,-1,-1,-1,-1,-1,-1,-1,-1],"split_conditions":[9.95E1,2.55E1,9.7E1,-2.4869968E-1,5.5E0,8.7E1,1.8429874E-1,2.15E1,8.5E0,4.215E-1,4.175E1,-9.119475E-2,3.74E-1,-2.0890538E-1,-2.216959E-2,2.75E1,3.11E1,-2.1760616E-1,-3.3198649E-3,4.4150274E-2,2.1384697E-1,5.3E1,3.0849998E1,1.475E2,3.25E1,9.503968E-2,-1.6056415E-1,1.2688491E-1,-4.4773083E-2,-1.0046888E-1,8.3448425E-2,4.676089E-2,1.8362035E-1],"split_indices":[1,7,2,0,0,2,0,3,0,6,5,0,6,0,0,7,5,0,0,0,0,2,5,1,3,0,0,0,0,0,0,0,0],"split_type":[0,0,0,0,0,0,0,0,0,0,0,0,0,0,0,0,0,0,0,0,0,0,0,0,0,0,0,0,0,0,0,0,0],"sum_hessian":[6.3815678E1,1.1454664E1,5.236101E1,3.3279648E0,8.126699E0,5.0312702E1,2.0483084E0,4.6460657E0,3.480634E0,4.585624E1,4.456466E0,1.4716015E0,3.1744642E0,2.4621499E0,1.0184841E0,2.7044859E1,1.881138E1,3.344981E0,1.1114854E0,1.8974334E0,1.277031E0,8.43802E0,1.8606838E1,5.661115E0,1.3150265E1,1.5869442E0,6.851075E0,7.07543E0,1.1531409E1,4.5405917E0,1.1205232E0,6.8858824E0,6.264382E0],"tree_param":{"num_deleted":"0","num_feature":"8","num_nodes":"33","size_leaf_vector":"0"}},{"base_weights":[-4.4303823E-2,-6.9700366E-1,-1.3980431E-2,-3.506614E-1,3.9507005E-2,-7.3291016E-1,2.5360605E-1,7.8366205E-2,-4.1551214E-1,-8.7312436E-1,-5.6376357E-2,5.9582007E-1,-1.5793495E-1,2.4927776E-1,-9.391162E-2,2.050512E-1,-8.345203E-1,4.89299E-1,-2.8910482E-2,-7.1028554E-1,5.7515405E-2,-9.74795E-2,5.8403087E-1,-3.2576394E-1,5.400256E-1,-1.2343452E-1,-8.8899016E-1,-1.4961825E-1,3.8243634E-1],"categories":[],"categories_nodes":[],"categories_segments":[],"categories_sizes":[],"default_left":[true,false,true,true,true,true,true,true,true,false,false,false,false,true,true,false,false,true,true,true,true,false,false,false,false,false,false,false,false],"id":12,"left_children":[1,-1,3,5,7,9,11,13,15,-1,-1,-1,-1,17,19,-1,-1,21,23,25,27,-1,-1,-1,-1,-1,-1,-1,-1],"loss_changes":[1.2290263E0,0E0,1.1093106E0,2.1354525E0,9.765967E-1,4.6558738E-1,6.593259E-1,1.4965365E0,1.3046906E0,0E0,0E0,0E0,0E0,1.7093796E0,2.4341908E0,0E0,0E0,8.176408E-1,2.3214428E0,4.2848873E-1,1.5048969E0,0E0,0E0,0E0,0E0,0E0,0E0,0E0,0E0],"parents":[2147483647,0,0,2,2,3,3,4,4,5,5,6,6,7,7,8,8,13,13,14,14,17,17,18,18,19,19,20,20],"right_children":[2,-1,4,6,8,10,12,14,16,-1,-1,-1,-1,18,20,-1,-1,22,24,26,28,-1,-1,-1,-1,-1,-1,-1,-1],"split_conditions":[2.28E1,-2.0910111E-1,9.45E1,3.05E1,5.65E1,7.52E-1,1.85E1,4.9E1,4.5E0,-2.6193732E-1,-1.6912907E-2,1.7874603E-1,-4.738049E-2,3.405E1,2.15E1,6.151536E-2,-2.503561E-1,2.25E1,1.405E2,2.675E1,7.7E1,-2.9243851E-2,1.7520927E-1,-9.7729184E-2,1.6200769E-1,-3.7030358E-2,-2.6669705E-1,-4.488548E-2,1.147309E-1],"split_indices":[5,0,1,3,7,6,4,4,0,0,0,0,0,5,3,0,0,7,1,5,2,0,0,0,0,0,0,0,0],"split_type":[0,0,0,0,0,0,0,0,0,0,0,0,0,0,0,0,0,0,0,0,0,0,0,0,0,0,0,0,0],"sum_hessian":[6.1589237E1,1.7582335E0,5.9831005E1,7.4404616E0,5.2390545E1,4.42708E0,3.0133817E0,4.903101E1,3.3595352E0,3.4263673E0,1.0007128E0,1.4007882E0,1.6125937E0,2.4388739E1,2.4642271E1,1.5599018E0,1.7996333E0,1.268512E1,1.1703618E1,4.132122E0,2.0510149E1,1.7592361E0,1.0925883E1,7.9716635E0,3.7319548E0,1.359233E0,2.7728891E0,1.2854845E1,7.6553035E0],"tree_param":{"num_deleted":"0","num_feature":"8","num_nodes":"29","size_leaf_vector":"0"}},{"base_weights":[-4.404974E-2,-4.0573153E-1,1.00161575E-4,-6.1218536E-1,2.0288023E-1,3.388174E-2,-5.018391E-1,-7.3004246E-1,-6.4139456E-2,-8.441038E-3,4.4298524E-1,-6.8004E-2,-7.3192406E-1,-2.820792E-1,6.378061E-2,-2.422189E-2,7.4682355E-1,3.138703E-1,-5.264989E-1,2.3921803E-1,-3.9594907E-2,4.8559612E-1,1.4787099E-2,-1.962732E-1,-8.497396E-1,5.959419E-1,-5.853838E-2,2.9030025E-1,-1.3817644E-1],"categories":[],"categories_nodes":[],"categories_segments":[],"categories_sizes":[],"default_left":[true,true,true,true,false,true,true,false,false,true,true,false,false,true,true,false,false,true,true,true,true,false,false,false,false,false,false,false,false],"id":13,"left_children":[1,3,5,7,-1,9,11,-1,-1,13,15,-1,-1,17,19,-1,-1,21,23,25,27,-1,-1,-1,-1,-1,-1,-1,-1],"loss_changes":[9.6365255E-1,9.4911516E-1,9.4587696E-1,2.8589356E-1,0E0,9.08639E-1,3.013494E-1,0E0,0E0,9.734008E-1,7.163004E-1,0E0,0E0,1.6625922E0,7.1794784E-1,0E0,0E0,1.785537E-1,6.512141E-1,1.5884192E0,8.6741924E-1,0E0,0E0,0E0,0E0,0E0,0E0,0E0,0E0],"parents":[2147483647,0,0,1,1,2,2,3,3,5,5,6,6,9,9,10,10,13,13,14,14,17,17,18,18,19,19,20,20],"right_children":[2,4,6,8,-1,10,12,-1,-1,14,16,-1,-1,18,20,-1,-1,22,24,26,28,-1,-1,-1,-1,-1,-1,-1,-1],"split_conditions":[2.645E1,4.95E1,5.75E1,6.695E-1,6.0864072E-2,1.655E2,4.5E0,-2.1901275E-1,-1.9241838E-2,2.45E1,2.55E1,-2.04012E-2,-2.1957722E-1,5.5E0,3.245E1,-7.266567E-3,2.2404708E-1,1.225E2,6.7E1,3.35E1,1.5E0,1.4567885E-1,4.43613E-3,-5.888196E-2,-2.5492188E-1,1.7878258E-1,-1.7561516E-2,8.7090075E-2,-4.1452933E-2],"split_indices":[5,7,7,6,0,1,0,0,0,7,3,0,0,3,5,0,0,1,2,7,0,0,0,0,0,0,0,0,0],"split_type":[0,0,0,0,0,0,0,0,0,0,0,0,0,0,0,0,0,0,0,0,0,0,0,0,0,0,0,0,0],"sum_hessian":[5.934562E1,5.5651684E0,5.3780453E1,4.1511426E0,1.414026E0,5.126285E1,2.5176005E0,3.1431303E0,1.008012E0,4.734433E1,3.9185221E0,1.321471E0,1.1961296E0,9.279564E0,3.8064766E1,1.9067794E0,2.0117426E0,2.6162996E0,6.6632643E0,1.3626062E1,2.4438702E1,1.2658602E0,1.3504395E0,4.091032E0,2.572232E0,5.743583E0,7.882479E0,5.175278E0,1.9263424E1],"tree_param":{"num_deleted":"0","num_feature":"8","num_nodes":"29","size_leaf_vector":"0"}},{"base_weights":[-3.6015175E-2,-6.126644E-2,4.8097527E-1,-1.3149924E-2,-5.37256E-1,-3.2560915E-1,2.909473E-2,-7.0646054E-1,8.321626E-2,-6.905035E-1,1.9289032E-1,1.5409458E-1,-1.0480784E-1,6.036743E-1,-3.2609716E-1,2.3239817E-1,-4.2999822E-1,-3.9792228E-1,1.8444735E-1,2.9512888E-1,-4.027716E-1,-9.065722E-1,2.0325188E-1,-6.105057E-1,-2.506046E-2,-2.696317E-1,3.9242938E-1],"categories":[],"categories_nodes":[],"categories_segments":[],"categories_sizes":[],"default_left":[true,true,false,true,true,true,true,false,false,false,true,true,true,false,false,true,true,true,true,false,false,false,false,false,false,false,false],"id":14,"left_children":[1,3,-1,5,7,9,11,-1,-1,-1,13,15,17,-1,-1,19,21,23,25,-1,-1,-1,-1,-1,-1,-1,-1],"loss_changes":[7.9887015E-1,1.3002225E0,0E0,7.072669E-1,6.0631454E-1,1.3399057E0,8.1096405E-1,0E0,0E0,0E0,9.251558E-1,1.241713E0,2.0676901E0,0E0,0E0,1.0218446E0,1.1807573E0,9.358467E-1,1.2884048E0,0E0,0E0,0E0,0E0,0E0,0E0,0E0,0E0],"parents":[2147483647,0,0,1,1,3,3,4,4,5,5,6,6,10,10,11,11,12,12,15,15,16,16,17,17,18,18],"right_children":[2,4,-1,6,8,10,12,-1,-1,-1,14,16,18,-1,-1,20,22,24,26,-1,-1,-1,-1,-1,-1,-1,-1],"split_conditions":[9.7E1,8.7E1,1.442926E-1,8.95E1,6.5E0,3.05E1,4.85E1,-2.1193817E-1,2.4964878E-2,-2.0715106E-1,3.3E1,9.5E0,1.43E2,1.8110229E-1,-9.7829156E-2,6.25E1,2.65E-1,3.455E1,2.65E1,8.853867E-2,-1.2083148E-1,-2.7197167E-1,6.0975567E-2,-1.8315172E-1,-7.5181383E-3,-8.0889516E-2,1.1772882E-1],"split_indices":[2,2,0,1,0,3,4,0,0,0,3,0,4,0,0,7,6,5,7,0,0,0,0,0,0,0,0],"split_type":[0,0,0,0,0,0,0,0,0,0,0,0,0,0,0,0,0,0,0,0,0,0,0,0,0,0,0],"sum_hessian":[5.793698E1,5.6079403E1,1.8575816E0,5.1864212E1,4.2151885E0,5.378067E0,4.6486145E1,3.203107E0,1.0120814E0,2.9618962E0,2.4161706E0,2.3964327E1,2.2521818E1,1.2575945E0,1.1585761E0,2.1662386E1,2.3019419E0,1.0999691E1,1.1522128E1,2.0202497E1,1.4598875E0,1.0671806E0,1.2347612E0,6.5996275E0,4.4000635E0,3.526481E0,7.995647E0],"tree_param":{"num_deleted":"0","num_feature":"8","num_nodes":"27","size_leaf_vector":"0"}},{"base_weights":[-3.7792563E-2,-2.781288E-1,1.422949E-2,-5.53785E-1,-9.192928E-2,-9.213708E-2,1.4492872E-1,-7.5003076E-1,-2.352477E-2,5.1814586E-1,-2.7535093E-1,2.5579635E-2,-5.1572907E-1,8.031778E-2,6.9650775E-1,-5.02686E-1,8.097018E-2,-1.1201352E-1,3.0684525E-1,-8.660325E-1,1.6323696E-1,-1.6486996E-1,2.5327125E-1,-7.6170035E-2,-6.5836763E-1,2.4194473E-1,-1.3976358E-1,-2.1349312E-1,3.9971608E-1,5.619005E-1,-1.419118E-1,1.8302129E-1,-5.2987146E-1,3.4676805E-1,-3.4763697E-1,-3.4482148E-2,-5.8415115E-1,6.558519E-1,1.2204484E-1,-6.1855996E-1,3.6381152E-1,7.081378E-1,-1.5577033E-1,3.036884E-2,-6.9919133E-1,5.5987096E-1,-8.226238E-2],"categories":[],"categories_nodes":[],"categories_segments":[],"categories_sizes":[],"default_left":[true,true,true,true,true,true,true,false,false,false,true,true,true,true,false,true,true,true,true,false,false,true,true,false,false,false,false,true,false,true,true,true,true,true,false,false,false,false,false,false,false,false,false,false,false,false,false],"id":15,"left_children":[1,3,5,7,9,11,13,-1,-1,-1,15,17,19,21,-1,23,25,27,29,-1,-1,31,33,-1,-1,-1,-1,35,-1,37,39,41,43,45,-1,-1,-1,-1,-1,-1,-1,-1,-1,-1,-1,-1,-1],"loss_changes":[7.1954626E-1,4.7431636E-1,6.806706E-1,3.909428E-1,9.6027714E-1,1.3632817E0,7.254547E-1,0E0,0E0,0E0,5.486443E-1,8.912026E-1,1.5530404E0,9.2198837E-1,0E0,2.1325648E-1,1.5120247E-1,8.954383E-1,9.4279695E-1,0E0,0E0,1.264109E0,8.265341E-1,0E0,0E0,0E0,0E0,8.868922E-1,0E0,1.2697256E-1,1.0761787E0,1.0797596E0,4.710709E-1,1.086003E0,0E0,0E0,0E0,0E0,0E0,0E0,0E0,0E0,0E0,0E0,0E0,0E0,0E0],"parents":[2147483647,0,0,1,1,2,2,3,3,4,4,5,5,6,6,10,10,11,11,12,12,13,13,15,15,16,16,17,17,18,18,21,21,22,22,27,27,29,29,30,30,31,31,32,32,33,33],"right_children":[2,4,6,8,10,12,14,-1,-1,-1,16,18,20,22,-1,24,26,28,30,-1,-1,32,34,-1,-1,-1,-1,36,-1,38,40,42,44,46,-1,-1,-1,-1,-1,-1,-1,-1,-1,-1,-1,-1,-1],"split_conditions":[2.8349998E1,2.5349998E-1,1.275E2,1.4E2,2.91E-1,1.215E2,9.65E1,-2.2500923E-1,-7.0574316E-3,1.5544376E-1,4.65E1,1.115E2,3.45E1,3.0900002E-1,2.0895234E-1,1.065E2,3.5E0,1.275E2,3.15E1,-2.5980976E-1,4.897109E-2,2.425E-1,2.865E2,-2.285101E-2,-1.975103E-1,7.258342E-2,-4.1929074E-2,1.045E2,1.1991483E-1,3.78E-1,2.8E1,6.8E1,1.4E1,5.5E0,-1.042911E-1,-1.0344645E-2,-1.7524534E-1,1.9675557E-1,3.6613453E-2,-1.8556799E-1,1.0914346E-1,2.1244135E-1,-4.67311E-2,9.110653E-3,-2.097574E-1,1.679613E-1,-2.4678716E-2],"split_indices":[5,6,1,1,6,1,2,0,0,0,4,1,7,6,0,1,0,4,4,0,0,6,4,0,0,0,0,1,0,6,7,2,3,0,0,0,0,0,0,0,0,0,0,0,0,0,0],"split_type":[0,0,0,0,0,0,0,0,0,0,0,0,0,0,0,0,0,0,0,0,0,0,0,0,0,0,0,0,0,0,0,0,0,0,0,0,0,0,0,0,0,0,0,0,0,0,0],"sum_hessian":[5.623434E1,9.232915E0,4.7001423E1,2.9264085E0,6.306506E0,2.6075512E1,2.0925913E1,1.833416E0,1.0929925E0,1.0359534E0,5.2705526E0,2.114023E1,4.935282E0,1.9757204E1,1.1687082E0,2.966891E0,2.3036618E0,1.4599842E1,6.5403876E0,3.073853E0,1.8614295E0,8.191397E0,1.1565807E1,1.191592E0,1.775299E0,1.2765899E0,1.0270718E0,1.2670077E1,1.929765E0,4.009452E0,2.5309358E0,4.44927E0,3.742127E0,1.0374535E1,1.1912725E0,9.280869E0,3.389208E0,2.899145E0,1.1103071E0,1.1880604E0,1.3428754E0,1.3173034E0,3.1319664E0,1.0589496E0,2.6831775E0,6.727809E0,3.6467257E0],"tree_param":{"num_deleted":"0","num_feature":"8","num_nodes":"47","size_leaf_vector":"0"}},{"base_weights":[-3.170508E-2,-6.5943755E-2,3.0294853E-1,-1.3837036E-1,1.2328174E-1,-1.3429482E-1,5.392691E-1,-7.64259E-2,-6.0865426E-1,-4.1519707E-1,2.9963046E-1,7.55069E-2,6.978778E-1,-3.6073324E-1,2.4130033E-2,-1.387382E-1,-7.2248864E-1,1.8959875E-1,-8.8610774E-1,5.5802065E-1,-2.876923E-2,-6.567664E-1,1.0703098E-1,2.8589985E-1,-1.6487245E-1,4.8845686E-2,8.870294E-1,-4.485264E-1,1.9782633E-1,-1.4523621E-1,-8.7306637E-1,-6.2147516E-1,5.4777443E-1,4.8177487E-1,-3.323337E-1,-4.1251478E-1,2.2521193E-1,-3.6669195E-1,5.3462476E-1,5.6584746E-1,-6.4729616E-2],"categories":[],"categories_nodes":[],"categories_segments":[],"categories_sizes":[],"default_left":[true,true,true,true,true,false,true,true,true,true,true,false,false,true,true,false,false,false,false,true,true,true,true,true,true,true,false,false,true,false,false,false,false,false,false,false,false,false,false,false,false],"id":16,"left_children":[1,3,5,7,9,-1,11,13,15,17,19,-1,-1,21,23,-1,-1,-1,-1,25,27,29,31,33,35,37,-1,-1,39,-1,-1,-1,-1,-1,-1,-1,-1,-1,-1,-1,-1],"loss_changes":[6.5592057E-1,7.183618E-1,6.231818E-1,1.0452766E0,1.5196875E0,0E0,2.1648121E-1,9.881496E-1,1.2541485E-1,1.3197646E0,1.0045605E0,0E0,0E0,1.3184948E0,1.3456506E0,0E0,0E0,0E0,0E0,1.0570683E0,6.6709673E-1,4.9949598E-1,1.7382743E0,1.5370063E0,1.6265022E0,9.301311E-1,0E0,0E0,4.852514E-1,0E0,0E0,0E0,0E0,0E0,0E0,0E0,0E0,0E0,0E0,0E0,0E0],"parents":[2147483647,0,0,1,1,2,2,3,3,4,4,6,6,7,7,8,8,9,9,10,10,13,13,14,14,19,19,20,20,21,21,22,22,23,23,24,24,25,25,28,28],"right_children":[2,4,6,8,10,-1,12,14,16,18,20,-1,-1,22,24,-1,-1,-1,-1,26,28,30,32,34,36,38,-1,-1,40,-1,-1,-1,-1,-1,-1,-1,-1,-1,-1,-1,-1],"split_conditions":[1.655E2,4.15E1,1.65E1,2.24E2,2.185E-1,-4.028845E-2,1.05E2,2.9650002E1,6.7E1,1.8200001E-1,4.7E1,2.2652071E-2,2.0936336E-1,6.9E1,6.7E1,-4.162146E-2,-2.167466E-1,5.687963E-2,-2.6583233E-1,1.07E2,5.15E1,2.655E1,2.495E-1,6.53E-1,4.61E-1,3.42E1,2.6610884E-1,-1.3455793E-1,5.35E1,-4.3570865E-2,-2.6191992E-1,-1.8644255E-1,1.6433233E-1,1.4453247E-1,-9.9700116E-2,-1.23754434E-1,6.7563586E-2,-1.1000759E-1,1.6038743E-1,1.6975424E-1,-1.9418886E-2],"split_indices":[1,7,3,4,6,0,4,5,2,6,7,0,0,2,2,0,0,0,0,1,7,5,6,6,6,5,0,0,7,0,0,0,0,0,0,0,0,0,0,0,0],"split_type":[0,0,0,0,0,0,0,0,0,0,0,0,0,0,0,0,0,0,0,0,0,0,0,0,0,0,0,0,0,0,0,0,0,0,0,0,0,0,0,0,0],"sum_hessian":[5.4501625E1,5.017149E1,4.3301353E0,3.647813E1,1.36933565E1,1.6707036E0,2.6594317E0,3.325976E1,3.2183716E0,3.0440314E0,1.0649325E1,1.053913E0,1.6055187E0,8.013987E0,2.5245773E1,1.0602715E0,2.1581001E0,1.5940955E0,1.4499359E0,5.568627E0,5.0806985E0,4.660469E0,3.3535178E0,1.0370238E1,1.4875535E1,2.6366313E0,2.9319956E0,1.4378107E0,3.6428878E0,1.8817515E0,2.7787173E0,1.1095229E0,2.2439947E0,8.04277E0,2.3274682E0,9.063888E0,5.8116465E0,1.5531802E0,1.0834509E0,1.0358295E0,2.6070583E0],"tree_param":{"num_deleted":"0","num_feature":"8","num_nodes":"41","size_leaf_vector":"0"}},{"base_weights":[-2.90247E-2,-2.5572625E-1,2.8436668E-2,9.0712555E-2,-4.2258942E-1,-3.3354674E-2,2.646669E-1,-2.2553013E-1,5.152179E-1,-7.6845855E-1,-1.21571295E-1,-7.4043915E-2,6.734009E-1,6.622411E-2,6.5220034E-1,1.8407689E-1,-5.258771E-1,3.9020023E-1,-3.5035202E-1,1.13574555E-2,-3.7679073E-1,4.0720245E-1,-4.1287655E-1,-5.968489E-1,1.9270337E-1,-5.4230615E-2,6.930381E-1,-7.0337486E-1,2.771678E-1,-1.05611175E-1,8.754101E-1,-5.445979E-1,-1.24955945E-1,3.091186E-2,-4.7692838E-1,-1.6927747E-2,-8.7346333E-1,-1.6386345E-1,6.227229E-1,2.5503412E-1,-4.2393205E-1],"categories":[],"categories_nodes":[],"categories_segments":[],"categories_sizes":[],"default_left":[true,true,true,true,true,true,true,true,false,false,true,true,false,true,false,false,false,false,true,true,true,true,true,false,false,true,false,true,true,true,false,false,false,false,false,false,false,false,false,false,false],"id":17,"left_children":[1,3,5,7,9,11,13,15,-1,-1,17,19,-1,21,-1,-1,-1,-1,23,25,27,29,31,-1,-1,33,-1,35,37,39,-1,-1,-1,-1,-1,-1,-1,-1,-1,-1,-1],"loss_changes":[7.079334E-1,6.728623E-1,6.483296E-1,7.0574087E-1,6.962743E-1,1.0740545E0,6.639747E-1,4.9198022E-1,0E0,0E0,7.506208E-1,8.982713E-1,0E0,1.3434311E0,0E0,0E0,0E0,0E0,6.7059815E-1,1.2867906E0,1.8260089E0,1.222511E0,6.422895E-2,0E0,0E0,9.654151E-1,0E0,6.12906E-1,5.990126E-1,4.6843356E-1,0E0,0E0,0E0,0E0,0E0,0E0,0E0,0E0,0E0,0E0,0E0],"parents":[2147483647,0,0,1,1,2,2,3,3,4,4,5,5,6,6,7,7,10,10,11,11,13,13,18,18,19,19,20,20,21,21,22,22,25,25,27,27,28,28,29,29],"right_children":[2,4,6,8,10,12,14,16,-1,-1,18,20,-1,22,-1,-1,-1,-1,24,26,28,30,32,-1,-1,34,-1,36,38,40,-1,-1,-1,-1,-1,-1,-1,-1,-1,-1,-1],"split_conditions":[2.45E1,1.35E1,1.59E2,5.345E-1,3.3449997E1,4.7300003E1,6.46E-1,1.22E2,1.5456538E-1,-2.3053758E-1,3.465E1,9.95E1,2.0202027E-1,4.2650002E-1,1.9566011E-1,5.522307E-2,-1.5776314E-1,1.1706007E-1,1.395E2,8.75E1,3.95E1,7.7E1,5.46E-1,-1.7905468E-1,5.781101E-2,1.9E1,2.0791145E-1,2.65E1,1.265E2,2.4700001E-1,2.6262304E-1,-1.6337939E-1,-3.7486784E-2,9.273558E-3,-1.4307852E-1,-5.078324E-3,-2.62039E-1,-4.915904E-2,1.8681689E-1,7.6510236E-2,-1.2717962E-1],"split_indices":[7,3,4,6,5,5,6,1,0,0,5,4,0,6,0,0,0,0,1,4,7,2,6,0,0,4,0,7,4,6,0,0,0,0,0,0,0,0,0,0,0],"split_type":[0,0,0,0,0,0,0,0,0,0,0,0,0,0,0,0,0,0,0,0,0,0,0,0,0,0,0,0,0,0,0,0,0,0,0,0,0,0,0,0,0],"sum_hessian":[5.278705E1,9.976499E0,4.281055E1,3.3914945E0,6.5850043E0,3.4615013E1,8.195534E0,2.2122E0,1.1792946E0,2.3416216E0,4.2433825E0,3.357715E1,1.0378653E0,6.1944513E0,2.0010827E0,1.0996454E0,1.1125546E0,1.0929474E0,3.1504352E0,2.6940134E1,6.637015E0,3.7065501E0,2.4879014E0,2.0987427E0,1.0516922E0,2.5415247E1,1.5248885E0,4.376063E0,2.260952E0,2.13862E0,1.5679302E0,1.0953163E0,1.392585E0,2.1925701E1,3.4895444E0,1.087327E0,3.2887356E0,1.224246E0,1.036706E0,1.0958633E0,1.0427564E0],"tree_param":{"num_deleted":"0","num_feature":"8","num_nodes":"41","size_leaf_vector":"0"}},{"base_weights":[-1.9111289E-2,-5.4477036E-1,2.4762691E-3,-5.3177267E-2,1.8081239E-1,-2.7205104E-1,3.9954044E-2,4.9674767E-1,-1.2673293E-2,2.2661583E-1,-5.3762156E-1,5.3563774E-1,-2.607259E-2,7.236472E-1,6.736352E-2,-6.254407E-1,1.5412696E-1,-1.3347591E-1,6.7739594E-1,-6.5318793E-1,2.7804384E-2,1.6248661E-1,6.8073726E-1,-2.9634112E-1,1.4229783E-1,-3.3154126E-2,5.470108E-1,-3.5529047E-1,1.9811815E-1,-7.795039E-2,-9.291367E-1,1.7904809E-1,-4.2663044E-1,-6.1981894E-2,4.335401E-1,2.811093E-1,-6.894502E-1],"categories":[],"categories_nodes":[],"categories_segments":[],"categories_sizes":[],"default_left":[true,false,true,true,true,true,true,true,true,true,true,true,true,false,false,false,true,true,false,true,false,false,false,true,true,true,false,false,false,false,false,false,false,false,false,false,false],"id":18,"left_children":[1,-1,3,5,7,9,11,13,15,17,19,21,23,-1,-1,-1,25,27,-1,29,-1,-1,-1,31,33,35,-1,-1,-1,-1,-1,-1,-1,-1,-1,-1,-1],"loss_changes":[5.9057283E-1,0E0,5.145188E-1,8.1695104E-1,7.598262E-1,1.7019899E0,9.504182E-1,4.0982437E-1,9.774541E-1,8.7764305E-1,5.462818E-1,7.400638E-2,1.2345499E0,0E0,0E0,0E0,5.757212E-1,3.3013856E-1,0E0,9.992633E-1,0E0,0E0,0E0,7.194555E-1,1.0276201E0,1.4466984E0,0E0,0E0,0E0,0E0,0E0,0E0,0E0,0E0,0E0,0E0,0E0],"parents":[2147483647,0,0,2,2,3,3,4,4,5,5,6,6,7,7,8,8,9,9,10,10,11,11,12,12,16,16,17,17,19,19,23,23,24,24,25,25],"right_children":[2,-1,4,6,8,10,12,14,16,18,20,22,24,-1,-1,-1,26,28,-1,30,-1,-1,-1,32,34,36,-1,-1,-1,-1,-1,-1,-1,-1,-1,-1,-1],"split_conditions":[2.28E1,-1.6343111E-1,1.445E2,2.5849998E-1,2.5849998E-1,6.7E1,2.7899998E-1,1.95E1,3.0049998E-1,1.94E-1,1.075E2,1.125E2,2.15E1,2.1709417E-1,2.0209057E-2,-1.8763222E-1,6.5E0,3.5E0,2.0321879E-1,3.9E1,8.341315E-3,4.8745986E-2,2.0422119E-1,2.35E1,4.5E0,5.5E0,1.6410324E-1,-1.0658715E-1,5.9435446E-2,-2.3385117E-2,-2.7874103E-1,5.3714428E-2,-1.2798914E-1,-1.8594569E-2,1.3006204E-1,8.4332794E-2,-2.0683508E-1],"split_indices":[5,0,1,6,6,2,6,3,6,6,4,1,3,0,0,0,0,0,0,7,0,0,0,7,0,0,0,0,0,0,0,0,0,0,0,0,0],"split_type":[0,0,0,0,0,0,0,0,0,0,0,0,0,0,0,0,0,0,0,0,0,0,0,0,0,0,0,0,0,0,0,0,0,0,0,0,0],"sum_hessian":[5.092454E1,1.0528228E0,4.987172E1,3.8544815E1,1.1326905E1,1.0931904E1,2.7612911E1,3.7068205E0,7.620085E0,3.84978E0,7.0821233E0,2.409741E0,2.520317E1,1.9768691E0,1.7299514E0,1.0421052E0,6.5779796E0,2.5314832E0,1.3182968E0,5.751393E0,1.3307307E0,1.2681861E0,1.141555E0,9.382426E0,1.5820744E1,5.074611E0,1.5033683E0,1.4740075E0,1.0574758E0,2.280334E0,3.4710586E0,1.937779E0,7.444648E0,9.761282E0,6.059462E0,3.8180392E0,1.256572E0],"tree_param":{"num_deleted":"0","num_feature":"8","num_nodes":"37","size_leaf_vector":"0"}},{"base_weights":[-1.3049745E-2,-2.3064491E-1,4.0772438E-2,-4.6031207E-1,3.645667E-2,-1.0218147E-2,2.9058328E-1,-2.1412034E-1,-7.0361084E-1,2.5493187E-1,-4.1421837E-1,7.012399E-2,-5.741325E-1,4.1664174E-1,-2.1896213E-1,-4.795305E-1,2.3923779E-1,4.4216022E-1,-1.0735369E-1,3.844283E-3,4.671245E-1,-8.183103E-1,4.161378E-2,3.9833948E-2,5.593819E-1,-5.5042624E-2,7.234801E-1,-9.430184E-2,2.840037E-1,7.585084E-1,-8.535401E-2,6.8042624E-1,1.548748E-1,2.9476557E-2,-4.6124923E-1,4.7835368E-1,2.7845263E-2],"categories":[],"categories_nodes":[],"categories_segments":[],"categories_sizes":[],"default_left":[true,true,true,true,true,true,true,true,false,true,false,true,true,true,false,false,false,true,false,true,true,false,false,false,true,false,false,true,true,false,false,false,false,false,false,false,false],"id":19,"left_children":[1,3,5,7,9,11,13,15,-1,17,-1,19,21,23,-1,-1,-1,25,-1,27,29,-1,-1,-1,31,-1,-1,33,35,-1,-1,-1,-1,-1,-1,-1,-1],"loss_changes":[6.000307E-1,6.3947845E-1,5.288035E-1,1.80655E-1,6.589071E-1,1.637257E0,5.4289293E-1,6.1849266E-1,0E0,3.46179E-1,0E0,8.3349884E-1,7.1132433E-1,2.994423E-1,0E0,0E0,0E0,4.732505E-1,0E0,8.0249316E-1,7.945209E-1,0E0,0E0,0E0,1.0327923E-1,0E0,0E0,9.9662113E-1,3.6346227E-1,0E0,0E0,0E0,0E0,0E0,0E0,0E0,0E0],"parents":[2147483647,0,0,1,1,2,2,3,3,4,4,5,5,6,6,7,7,9,9,11,11,12,12,13,13,17,17,19,19,20,20,24,24,27,27,28,28],"right_children":[2,4,6,8,10,12,14,16,-1,18,-1,20,22,24,-1,-1,-1,26,-1,28,30,-1,-1,-1,32,-1,-1,34,36,-1,-1,-1,-1,-1,-1,-1,-1],"split_conditions":[2.45E1,4.29E-1,7.1000004E-1,3.025E-1,7.09E-1,5.895E-1,1.3050001E0,2.575E-1,-2.1108326E-1,6.55E1,-1.24265514E-1,5.0100005E-1,3.95E1,1.035E2,-6.568864E-2,-1.4385916E-1,7.177134E-2,6.1E1,-3.2206107E-2,1.445E2,7.45E1,-2.454931E-1,1.2484134E-2,1.1950185E-2,3.6050003E1,-1.6512789E-2,2.1704404E-1,3.79E-1,1.85E1,2.2755252E-1,-2.5606204E-2,2.0412788E-1,4.6462443E-2,8.842967E-3,-1.3837478E-1,1.4350611E-1,8.35358E-3],"split_indices":[7,6,6,6,6,6,6,6,0,2,0,6,7,1,0,0,0,2,0,1,2,0,0,0,5,0,0,6,3,0,0,0,0,0,0,0,0],"split_type":[0,0,0,0,0,0,0,0,0,0,0,0,0,0,0,0,0,0,0,0,0,0,0,0,0,0,0,0,0,0,0,0,0,0,0,0,0],"sum_hessian":[4.9431583E1,9.150826E0,4.0280758E1,4.531263E0,4.6195636E0,3.424905E1,6.0317087E0,3.1867213E0,1.3445413E0,3.4038172E0,1.2157463E0,3.0744463E1,3.504585E0,4.981614E0,1.0500946E0,1.9735897E0,1.2131317E0,2.098726E0,1.3050911E0,2.7211203E1,3.5332599E0,2.273888E0,1.2306969E0,1.7200539E0,3.2615604E0,1.0490261E0,1.0497E0,2.0642923E1,6.5682797E0,2.0690818E0,1.4641781E0,1.985353E0,1.2762073E0,1.6123745E1,4.519178E0,3.2415044E0,3.3267756E0],"tree_param":{"num_deleted":"0","num_feature":"8","num_nodes":"37","size_leaf_vector":"0"}},{"base_weights":[-1.080479E-2,-3.0030766E-1,2.1126192E-2,-4.6154216E-1,1.3052882E-1,4.9794015E-2,-3.69056E-1,-4.974119E-2,-6.4734924E-1,1.669395E-2,5.484797E-1,3.941143E-2,-6.0742867E-1,5.3127926E-2,-4.468743E-1,2.2440555E-2,5.872919E-1,-5.9122664E-1,-7.595807E-2,-1.4851889E-2,3.2703033E-1],"categories":[],"categories_nodes":[],"categories_segments":[],"categories_sizes":[],"default_left":[true,true,true,true,false,true,true,false,false,true,false,false,false,true,true,true,false,false,false,false,false],"id":20,"left_children":[1,3,5,7,-1,9,11,-1,-1,13,-1,-1,-1,15,17,19,-1,-1,-1,-1,-1],"loss_changes":[4.6134675E-1,4.044665E-1,5.247021E-1,2.6057184E-1,0E0,7.014245E-1,3.371748E-1,0E0,0E0,7.2297883E-1,0E0,0E0,0E0,6.306592E-1,1.22305274E-1,4.385765E-1,0E0,0E0,0E0,0E0,0E0],"parents":[2147483647,0,0,1,1,2,2,3,3,5,5,6,6,9,9,13,13,14,14,15,15],"right_children":[2,4,6,8,-1,10,12,-1,-1,14,-1,-1,-1,16,18,20,-1,-1,-1,-1,-1],"split_conditions":[2.645E1,4.95E1,5.65E1,2.345E1,3.915865E-2,5.15E1,4.5E0,-1.4922357E-2,-1.9420478E-1,4.65E1,1.6454391E-1,1.182343E-2,-1.8222861E-1,1.25E1,1.45E2,1.595E2,1.7618757E-1,-1.77368E-1,-2.2787422E-2,-4.455567E-3,9.8109104E-2],"split_indices":[5,7,7,5,0,7,0,0,0,7,0,0,0,0,1,1,0,0,0,0,0],"split_type":[0,0,0,0,0,0,0,0,0,0,0,0,0,0,0,0,0,0,0,0,0],"sum_hessian":[4.8220787E1,3.9552789E0,4.426551E1,2.8263042E0,1.1289747E0,4.204847E1,2.217041E0,1.2729006E0,1.5534035E0,4.0400387E1,1.6480838E0,1.1246107E0,1.0924304E0,3.827738E1,2.123003E0,3.718324E1,1.0941421E0,1.1006804E0,1.0223229E0,3.3974777E1,3.2084618E0],"tree_param":{"num_deleted":"0","num_feature":"8","num_nodes":"21","size_leaf_vector":"0"}},{"base_weights":[-1.0378229E-2,-1.8797816E-1,3.2572E-2,1.2779155E-1,-3.5772014E-1,6.4987265E-2,-2.8825706E-1,-1.4485046E-1,4.3933865E-1,-6.7823195E-1,-1.01643786E-1,2.7828116E-2,4.9245787E-1,1.8088987E-1,-6.459305E-1,2.9750338E-1,-2.9344407E-1,-4.295697E-1,6.0776398E-2,-5.467598E-1,6.982755E-3,1.0214608E-1,-3.8785774E-1,4.671108E-2,3.5640845E-1,-5.2085096E-1,-6.4173035E-2],"categories":[],"categories_nodes":[],"categories_segments":[],"categories_sizes":[],"default_left":[true,true,true,true,true,true,true,false,false,false,true,true,false,false,false,false,true,false,true,false,false,true,true,false,false,false,false],"id":21,"left_children":[1,3,5,7,9,11,13,-1,-1,-1,15,17,-1,-1,-1,-1,19,-1,21,-1,-1,23,25,-1,-1,-1,-1],"loss_changes":[3.7624764E-1,5.601042E-1,4.339454E-1,4.1121835E-1,4.6495694E-1,5.7525134E-1,7.624894E-1,0E0,0E0,0E0,4.541764E-1,5.561677E-1,0E0,0E0,0E0,0E0,2.8846326E-1,0E0,6.6480297E-1,0E0,0E0,4.2921188E-1,9.7973675E-2,0E0,0E0,0E0,0E0],"parents":[2147483647,0,0,1,1,2,2,3,3,4,4,5,5,6,6,10,10,11,11,16,16,18,18,21,21,22,22],"right_children":[2,4,6,8,10,12,14,-1,-1,-1,16,18,-1,-1,-1,-1,20,-1,22,-1,-1,24,26,-1,-1,-1,-1],"split_conditions":[2.45E1,1.35E1,5.65E1,5.345E-1,3.3449997E1,5.15E1,4.5E0,-4.345514E-2,1.318016E-1,-2.0346959E-1,3.465E1,2.635E1,1.4773737E-1,5.4266963E-2,-1.9377917E-1,8.925102E-2,1.275E2,-1.2887092E-1,4.65E1,-1.6402794E-1,2.0948267E-3,7.1000004E-1,1.45E2,1.4013325E-2,1.0692254E-1,-1.5625529E-1,-1.9251911E-2],"split_indices":[7,3,7,6,5,7,0,0,0,0,5,5,0,0,0,0,1,0,7,0,0,6,1,0,0,0,0],"split_type":[0,0,0,0,0,0,0,0,0,0,0,0,0,0,0,0,0,0,0,0,0,0,0,0,0,0,0],"sum_hessian":[4.7522137E1,8.596951E0,3.8925186E1,3.092024E0,5.5049267E0,3.6077503E1,2.847685E0,1.9343184E0,1.1577057E0,1.712706E0,3.7922206E0,3.4172092E1,1.9054111E0,1.445689E0,1.4019961E0,1.0519478E0,2.7402728E0,1.487297E0,3.2684795E1,1.0418532E0,1.6984197E0,3.063242E1,2.052375E0,2.6121128E1,4.5112906E0,1.0229443E0,1.0294306E0],"tree_param":{"num_deleted":"0","num_feature":"8","num_nodes":"27","size_leaf_vector":"0"}},{"base_weights":[-1.6275456E-2,-2.5929308E-1,1.4625259E-2,-6.067244E-1,1.8081963E-1,5.3476878E-2,-1.8663792E-1,4.666594E-1,-1.7561558E-1,1.5095015E-1,-5.3588E-2,-4.219686E-1,4.3556446E-1,2.4668697E-1,-2.0968817E-1,-1.7438094E-1,2.902763E-1,5.7182427E-2,-6.585854E-1,4.3263826E-1,-9.2824865E-3,-4.7112206E-1,2.4080911E-1,-5.5638707E-1,1.1108698E-1,5.720808E-1,-2.2452082E-1,7.750818E-2,6.9211084E-1,-3.4166667E-1,4.3433285E-1,-1.16243616E-1,-5.934675E-1,-1.0303162E-1,-7.7930135E-1,3.4491932E-1,-1.94355E-1,9.266255E-2,7.70684E-1],"categories":[],"categories_nodes":[],"categories_segments":[],"categories_sizes":[],"default_left":[true,true,true,false,true,true,true,false,false,true,true,true,false,true,true,true,true,false,false,true,true,true,false,true,true,true,false,false,false,false,false,false,false,false,false,false,false,false,false],"id":22,"left_children":[1,3,5,-1,7,9,11,-1,-1,13,15,17,-1,19,21,23,25,-1,-1,27,29,31,-1,33,35,37,-1,-1,-1,-1,-1,-1,-1,-1,-1,-1,-1,-1,-1],"loss_changes":[3.6100772E-1,9.384204E-1,3.473828E-1,0E0,4.040387E-1,3.9364457E-1,1.2386962E0,0E0,0E0,7.284676E-1,8.125703E-1,6.878991E-1,0E0,7.631246E-1,6.6137624E-1,1.6103382E0,8.747058E-1,0E0,0E0,7.995064E-1,1.2822564E0,7.351631E-2,0E0,5.50277E-1,7.070178E-1,2.7194357E-1,0E0,0E0,0E0,0E0,0E0,0E0,0E0,0E0,0E0,0E0,0E0,0E0,0E0],"parents":[2147483647,0,0,1,1,2,2,4,4,5,5,6,6,9,9,10,10,11,11,13,13,14,14,15,15,16,16,19,19,20,20,21,21,23,23,24,24,25,25],"right_children":[2,4,6,-1,8,10,12,-1,-1,14,16,18,-1,20,22,24,26,-1,-1,28,30,32,-1,34,36,38,-1,-1,-1,-1,-1,-1,-1,-1,-1,-1,-1,-1,-1],"split_conditions":[8.95E1,3.05E1,8.45E1,-1.8201733E-1,7.95E1,4.85E1,4.305E1,1.3999783E-1,-5.2684676E-2,7.5E0,7.7E1,3.3699997E1,1.3066934E-1,1.245E2,4.305E-1,4.185E-1,4.275E-1,1.7154729E-2,-1.9757564E-1,2.95E1,1.435E2,9.5E0,7.224274E-2,2.545E-1,6.135E-1,4E0,-6.735625E-2,2.3252456E-2,2.0763326E-1,-1.0250001E-1,1.3029987E-1,-3.4873087E-2,-1.7804025E-1,-3.0909488E-2,-2.3379041E-1,1.034758E-1,-5.83065E-2,2.7798766E-2,2.3120521E-1],"split_indices":[1,3,2,0,1,4,5,0,0,0,2,5,0,1,6,6,6,0,0,7,1,0,0,6,6,0,0,0,0,0,0,0,0,0,0,0,0,0,0],"split_type":[0,0,0,0,0,0,0,0,0,0,0,0,0,0,0,0,0,0,0,0,0,0,0,0,0,0,0,0,0,0,0,0,0,0,0,0,0,0,0],"sum_hessian":[4.6568993E1,4.4196486E0,4.2149345E1,2.258327E0,2.1613216E0,3.5944878E1,6.2044654E0,1.0278261E0,1.1334956E0,1.8600681E1,1.7344198E1,4.735289E0,1.4691763E0,1.4948381E1,3.6522994E0,1.3200126E1,4.144073E0,1.8160686E0,2.9192204E0,8.258631E0,6.6897507E0,2.2821395E0,1.37016E0,5.2395945E0,7.960531E0,2.6061623E0,1.5379108E0,4.034914E0,4.2237167E0,3.9557042E0,2.7340462E0,1.0850217E0,1.1971177E0,2.2090688E0,3.030526E0,4.435596E0,3.524935E0,1.1929681E0,1.4131943E0],"tree_param":{"num_deleted":"0","num_feature":"8","num_nodes":"39","size_leaf_vector":"0"}},{"base_weights":[-1.4034418E-2,-9.9380575E-2,7.394348E-2,-4.1789174E-2,-5.6332076E-1,3.7818633E-3,3.9485687E-1,2.0293169E-2,-4.367455E-1,6.578473E-2,-4.7939453E-1,7.779506E-1,-7.121039E-2,-2.315741E-1,1.1811341E-1,-6.524435E-1,3.3663271E-3,-5.91043E-2,2.897793E-1,-6.262075E-1,6.7369076E-3,2.090571E-1,-1.8082234E-1,1.6332082E-1,-2.1255656E-1,-2.0320277E-1,4.4962293E-1,-1.9327281E-1,3.5111853E-1,6.637805E-1,3.0797475E-3,8.367314E-2,-3.4188265E-1,-5.9557904E-2,5.111788E-1,5.9191115E-2,-4.170994E-1,6.73565E-1,-7.073876E-2],"categories":[],"categories_nodes":[],"categories_segments":[],"categories_sizes":[],"default_left":[true,true,true,true,false,true,true,true,true,true,false,false,false,true,true,false,false,true,true,false,true,true,true,true,true,false,true,false,false,false,false,false,false,false,false,false,false,false,false],"id":23,"left_children":[1,3,5,7,-1,9,11,13,15,17,-1,-1,-1,19,21,-1,-1,23,25,-1,27,29,31,33,35,-1,37,-1,-1,-1,-1,-1,-1,-1,-1,-1,-1,-1,-1],"loss_changes":[3.5453814E-1,6.1496776E-1,5.240676E-1,5.5659693E-1,0E0,6.3561183E-1,8.013741E-1,5.2650374E-1,2.944674E-1,5.4164726E-1,0E0,0E0,0E0,5.689737E-1,4.5251665E-1,0E0,0E0,4.739437E-1,6.336105E-1,0E0,3.939024E-1,1.1368976E0,2.030308E-1,4.816035E-1,4.7211403E-1,0E0,6.894616E-1,0E0,0E0,0E0,0E0,0E0,0E0,0E0,0E0,0E0,0E0,0E0,0E0],"parents":[2147483647,0,0,1,1,2,2,3,3,5,5,6,6,7,7,8,8,9,9,13,13,14,14,17,17,18,18,20,20,21,21,22,22,23,23,24,24,26,26],"right_children":[2,4,6,8,-1,10,12,14,16,18,-1,-1,-1,20,22,-1,-1,24,26,-1,28,30,32,34,36,-1,38,-1,-1,-1,-1,-1,-1,-1,-1,-1,-1,-1,-1],"split_conditions":[1.235E2,1.215E2,4.1E1,4.125E1,-1.6899623E-1,3.995E1,1.425E2,2.9650002E1,7.9E1,4.21E-1,-1.4381836E-1,2.3338519E-1,-2.1363119E-2,2.5849998E-1,7.5E0,-1.9573307E-1,1.0098981E-3,2.425E-1,2.88E1,-1.8786225E-1,7.3E1,1.35E1,3.26E1,2.095E-1,3.2E1,-6.0960833E-2,1.675E2,-5.7981845E-2,1.0533556E-1,1.9913416E-1,9.239243E-4,2.5101943E-2,-1.025648E-1,-1.7867371E-2,1.5335365E-1,1.7757336E-2,-1.2512982E-1,2.020695E-1,-2.122163E-2],"split_indices":[1,1,5,5,0,5,1,5,2,6,0,0,0,6,0,0,0,6,5,0,2,3,5,6,5,0,4,0,0,0,0,0,0,0,0,0,0,0,0],"split_type":[0,0,0,0,0,0,0,0,0,0,0,0,0,0,0,0,0,0,0,0,0,0,0,0,0,0,0,0,0,0,0,0,0,0,0,0,0,0,0],"sum_hessian":[4.5239075E1,2.2897202E1,2.2341871E1,2.1338423E1,1.5587792E0,1.9163845E1,3.1780262E0,1.9259657E1,2.0787652E0,1.7749958E1,1.4138867E0,1.3769951E0,1.8010311E0,5.0051274E0,1.425453E1,1.0712823E0,1.007483E0,1.1868671E1,5.8812876E0,1.2716451E0,3.7334824E0,1.1160033E1,3.0944967E0,4.81914E0,7.049531E0,1.3736088E0,4.5076785E0,2.6393726E0,1.0941099E0,2.7863004E0,8.373733E0,1.3530251E0,1.7414715E0,3.4423513E0,1.3767886E0,3.3325937E0,3.7169373E0,2.9455988E0,1.5620799E0],"tree_param":{"num_deleted":"0","num_feature":"8","num_nodes":"39","size_leaf_vector":"0"}},{"base_weights":[-1.3588834E-2,-4.150801E-2,2.6522425E-1,-6.2316354E-2,3.0568013E-1,-1.396336E-1,4.8791522E-1,-3.3214185E-1,-2.6616652E-2,-6.777712E-1,1.058543E-1,2.2468145E-3,-3.3236837E-1,-2.138042E-1,5.797396E-2,7.256656E-2,-5.617024E-1,-4.4090217E-1,2.4735965E-1,6.265577E-1,-2.5782462E-3],"categories":[],"categories_nodes":[],"categories_segments":[],"categories_sizes":[],"default_left":[true,true,true,true,false,false,false,true,true,false,false,true,true,true,true,false,false,false,false,false,false],"id":24,"left_children":[1,3,5,7,-1,-1,-1,9,11,-1,-1,13,15,17,19,-1,-1,-1,-1,-1,-1],"loss_changes":[3.6147365E-1,3.209502E-1,4.4979787E-1,3.7894046E-1,0E0,0E0,0E0,7.7065086E-1,3.240968E-1,0E0,0E0,4.27444E-1,3.3488706E-1,8.7168324E-1,9.7220117E-1,0E0,0E0,0E0,0E0,0E0,0E0],"parents":[2147483647,0,0,1,1,2,2,3,3,7,7,8,8,11,11,12,12,13,13,14,14],"right_children":[2,4,6,8,-1,-1,-1,10,12,-1,-1,14,16,18,20,-1,-1,-1,-1,-1,-1],"split_conditions":[1.655E2,1.1075E0,1.65E1,8.95E1,9.170404E-2,-4.189008E-2,1.4637457E-1,3.05E1,2.745E2,-2.0333137E-1,3.1756293E-2,6.1E1,3.2E1,1.27E2,6.3E1,2.1769969E-2,-1.6851072E-1,-1.3227066E-1,7.4207895E-2,1.8796732E-1,-7.734739E-4],"split_indices":[1,6,3,1,0,0,0,3,4,0,0,2,3,1,2,0,0,0,0,0,0],"split_type":[0,0,0,0,0,0,0,0,0,0,0,0,0,0,0,0,0,0,0,0,0],"sum_hessian":[4.402239E1,4.078907E1,3.2333212E0,3.9256767E1,1.5323002E0,1.2797232E0,1.9535979E0,3.616765E0,3.5640003E1,1.7155566E0,1.9012084E0,3.347277E1,2.1672332E0,6.281832E0,2.7190939E1,1.0307738E0,1.1364595E0,4.238526E0,2.043306E0,1.7173803E0,2.5473558E1],"tree_param":{"num_deleted":"0","num_feature":"8","num_nodes":"21","size_leaf_vector":"0"}},{"base_weights":[-1.017743E-2,1.5547837E-2,-2.9494777E-1,-1.3347942E-2,4.5351484E-1,1.4284843E-1,-6.1821985E-1,-4.3162007E-2,4.2452613E-1,-7.473824E-2,2.8939304E-1,1.7228624E-2,-2.101719E-1,-2.7790029E-2,4.452839E-1,-1.12128444E-1,3.394624E-1,1.1570769E-1,-3.835348E-1],"categories":[],"categories_nodes":[],"categories_segments":[],"categories_sizes":[],"default_left":[true,true,true,true,false,false,false,true,false,true,true,true,true,false,false,false,false,false,false],"id":25,"left_children":[1,3,5,7,-1,-1,-1,9,-1,11,13,15,17,-1,-1,-1,-1,-1,-1],"loss_changes":[3.2872155E-1,5.316307E-1,6.1421883E-1,5.3961295E-1,0E0,0E0,0E0,4.23738E-1,0E0,4.491157E-1,1.8671569E-1,9.6452314E-1,8.65876E-1,0E0,0E0,0E0,0E0,0E0,0E0],"parents":[2147483647,0,0,1,1,2,2,3,3,7,7,9,9,10,10,11,11,12,12],"right_children":[2,4,6,8,-1,-1,-1,10,-1,12,14,16,18,-1,-1,-1,-1,-1,-1],"split_conditions":[5.55E1,5.15E1,4.5E0,1.15E1,1.3605446E-1,4.2854533E-2,-1.8546596E-1,1.655E2,1.2735784E-1,3.505E1,1.65E1,2.95E1,6.9E1,-8.337009E-3,1.3358517E-1,-3.3638533E-2,1.0183872E-1,3.4712307E-2,-1.1506044E-1],"split_indices":[7,7,0,0,0,0,0,1,0,5,3,3,2,0,0,0,0,0,0],"split_type":[0,0,0,0,0,0,0,0,0,0,0,0,0,0,0,0,0,0,0],"sum_hessian":[4.324582E1,4.052988E1,2.715941E0,3.893086E1,1.5990211E0,1.3906921E0,1.325249E0,3.7293068E1,1.6377901E0,3.4767174E1,2.5258965E0,2.1226206E1,1.3540966E1,1.1031362E0,1.4227604E0,1.5611268E1,5.614938E0,4.8176117E0,8.723355E0],"tree_param":{"num_deleted":"0","num_feature":"8","num_nodes":"19","size_leaf_vector":"0"}},{"base_weights":[-2.1706012E-3,-1.968477E-2,3.5798523E-1,2.7305461E-2,-3.3868822E-1,-8.284952E-2,9.417739E-2,-5.9627056E-1,3.7513116E-1,3.0972967E-1,-1.9677773E-1,-3.0264303E-1,1.5408008E-1,-6.7644995E-1,-1.7227E-1,5.826451E-1,-1.0775409E-1,-5.5526674E-1,1.3228157E-1,-5.357681E-1,7.3853634E-2,-2.1249022E-1,2.2021648E-1,-7.430312E-1,-5.618405E-2,3.163065E-1,-3.0496973E-1,5.681759E-2,-4.209008E-1,5.8410007E-1,1.20744586E-1],"categories":[],"categories_nodes":[],"categories_segments":[],"categories_sizes":[],"default_left":[true,true,false,true,true,true,true,true,false,true,true,true,true,false,false,false,false,true,true,false,false,true,true,false,false,false,false,false,false,false,false],"id":26,"left_children":[1,3,-1,5,7,9,11,13,-1,15,17,19,21,-1,-1,-1,-1,23,25,-1,-1,27,29,-1,-1,-1,-1,-1,-1,-1,-1],"loss_changes":[2.815038E-1,6.4543504E-1,0E0,2.871099E-1,1.2392877E0,7.253575E-1,6.185967E-1,3.4584165E-2,0E0,4.8775387E-1,1.5038025E0,3.4617445E-1,5.6969595E-1,0E0,0E0,0E0,0E0,5.200956E-1,6.7016095E-1,0E0,0E0,2.3750725E-1,6.0862476E-1,0E0,0E0,0E0,0E0,0E0,0E0,0E0,0E0],"parents":[2147483647,0,0,1,1,3,3,4,4,5,5,6,6,7,7,9,9,10,10,11,11,12,12,17,17,18,18,21,21,22,22],"right_children":[2,4,-1,6,8,10,12,14,-1,16,18,20,22,-1,-1,-1,-1,24,26,-1,-1,28,30,-1,-1,-1,-1,-1,-1,-1,-1],"split_conditions":[9.7E1,8.45E1,1.07395574E-1,2.85E1,7.5E0,5.3E1,5.9E1,6.135E-1,1.1253935E-1,3.035E-1,4.215E-1,1.17E2,2.755E1,-2.02935E-1,-5.1681E-2,1.7479354E-1,-3.232623E-2,7.55E1,3.89E1,-1.6073044E-1,2.2156091E-2,3E-1,6.7E1,-2.2290938E-1,-1.6855216E-2,9.489196E-2,-9.1490924E-2,1.7045278E-2,-1.2627025E-1,1.7523003E-1,3.6223378E-2],"split_indices":[2,2,0,7,0,2,2,6,0,6,6,1,5,0,0,0,0,2,5,0,0,6,2,0,0,0,0,0,0,0,0],"split_type":[0,0,0,0,0,0,0,0,0,0,0,0,0,0,0,0,0,0,0,0,0,0,0,0,0,0,0,0,0,0,0],"sum_hessian":[4.251052E1,4.144063E1,1.06989E0,3.6917038E1,4.523594E0,1.3855159E1,2.3061878E1,3.4451017E0,1.078492E0,2.7298558E0,1.1125303E1,2.493257E0,2.0568623E1,2.3965168E0,1.0485849E0,1.4115152E0,1.3183404E0,4.995543E0,6.1297603E0,1.2785494E0,1.2147077E0,2.805552E0,1.776307E1,3.2747324E0,1.7208105E0,4.508768E0,1.6209921E0,1.541284E0,1.2642679E0,2.767418E0,1.4995652E1],"tree_param":{"num_deleted":"0","num_feature":"8","num_nodes":"31","size_leaf_vector":"0"}},{"base_weights":[-7.239203E-3,-3.03542E-2,2.3158687E-1,2.8678937E-2,-1.427869E-1,-3.999793E-2,4.8530316E-1,1.3863173E-1,-1.490925E-1,-2.5240955E-1,5.034824E-1,2.0748822E-1,-1.7755944E-1,-5.9358585E-1,-2.8702822E-2,-7.01388E-1,-8.0253415E-2,-2.1392745E-1,2.63959E-1,1.6285723E-1,-3.785471E-1,-3.3484477E-1,2.2774765E-1,-2.4837257E-1,4.096262E-1,4.619035E-1,2.7551819E-2,-6.398886E-1,3.9604238E-1,5.5058813E-1,-1.3260375E-1,-5.7660364E-2,-5.1136154E-1],"categories":[],"categories_nodes":[],"categories_segments":[],"categories_sizes":[],"default_left":[true,true,true,true,true,false,false,true,true,true,false,true,true,false,true,false,true,false,true,false,false,true,true,true,false,false,false,false,false,false,false,false,false],"id":27,"left_children":[1,3,5,7,9,-1,-1,11,13,15,-1,17,19,-1,21,-1,23,-1,25,-1,-1,27,29,31,-1,-1,-1,-1,-1,-1,-1,-1,-1],"loss_changes":[2.4096113E-1,2.6639953E-1,2.8506207E-1,5.434708E-1,1.1028718E0,0E0,0E0,4.079132E-1,5.557029E-1,9.0540934E-1,0E0,4.005099E-1,3.0705053E-1,0E0,8.1996506E-1,0E0,9.3543017E-1,0E0,6.047997E-1,0E0,0E0,1.3063908E0,7.4192834E-1,3.797264E-1,0E0,0E0,0E0,0E0,0E0,0E0,0E0,0E0,0E0],"parents":[2147483647,0,0,1,1,2,2,3,3,4,4,7,7,8,8,9,9,11,11,12,12,14,14,16,16,18,18,21,21,22,22,23,23],"right_children":[2,4,6,8,10,-1,-1,12,14,16,-1,18,20,-1,22,-1,24,-1,26,-1,-1,28,30,32,-1,-1,-1,-1,-1,-1,-1,-1,-1],"split_conditions":[1.655E2,9.95E1,1.37E2,3.85E1,4.45E1,-1.199938E-2,1.4559096E-1,3.75E1,6.5E1,1.265E2,1.5104473E-1,2.645E1,3.525E1,-1.7807576E-1,2.5849998E-1,-2.104164E-1,4.05E1,-6.4178236E-2,3.6900002E-1,4.885717E-2,-1.1356413E-1,1.44E2,3.8E-1,2.24E2,1.2288786E-1,1.3857105E-1,8.265546E-3,-1.9196658E-1,1.1881272E-1,1.6517645E-1,-3.9781127E-2,-1.729811E-2,-1.5340847E-1],"split_indices":[1,4,4,7,3,0,0,3,2,4,0,5,5,0,6,0,7,0,6,0,0,1,6,4,0,0,0,0,0,0,0,0,0],"split_type":[0,0,0,0,0,0,0,0,0,0,0,0,0,0,0,0,0,0,0,0,0,0,0,0,0,0,0,0,0,0,0,0,0],"sum_hessian":[4.137533E1,3.852004E1,2.8552942E0,2.574662E1,1.2773418E1,1.7859339E0,1.0693603E0,1.6043673E1,9.702948E0,1.1442017E1,1.3314021E0,1.3456959E1,2.5867138E0,1.2302344E0,8.4727125E0,2.319274E0,9.122743E0,1.2606931E0,1.2196265E1,1.0307049E0,1.556009E0,3.7228317E0,4.7498813E0,7.158908E0,1.9638348E0,6.1189775E0,6.0772877E0,2.714436E0,1.0083957E0,2.2268846E0,2.5229964E0,4.856419E0,2.3024886E0],"tree_param":{"num_deleted":"0","num_feature":"8","num_nodes":"33","size_leaf_vector":"0"}},{"base_weights":[-8.3158715E-3,-1.7139716E-1,2.780048E-2,-5.6243044E-1,-1.1910088E-2,2.727481E-1,-1.81311E-2,2.5798747E-1,-3.8685203E-1,6.2988573E-1,-9.2839636E-2,-1.5938729E-1,7.465589E-2,3.654875E-1,6.488069E-3,-3.7139732E-1,1.8249153E-1,5.6323458E-2,-4.582584E-1,-1.9645616E-1,2.0363761E-1,-2.961699E-1,3.112217E-1,-7.329602E-1,1.6962054E-1,1.4500171E-1,-3.9007854E-1,3.171507E-1,-3.016766E-1,-6.1597455E-1,5.935216E-2,4.8004508E-1,-9.2548065E-2,-6.3868034E-1,-1.1332292E-1,4.0092185E-1,-1.9834207E-1],"categories":[],"categories_nodes":[],"categories_segments":[],"categories_sizes":[],"default_left":[true,true,true,false,true,true,true,true,false,false,true,true,true,false,false,false,false,true,true,true,true,true,true,false,false,false,true,true,false,false,false,false,false,false,false,false,false],"id":28,"left_children":[1,3,5,-1,7,9,11,13,-1,-1,15,17,19,-1,-1,-1,-1,21,23,25,27,29,31,-1,-1,-1,33,35,-1,-1,-1,-1,-1,-1,-1,-1,-1],"loss_changes":[2.470915E-1,4.6721828E-1,3.9358953E-1,0E0,7.494065E-1,7.788031E-1,4.0545037E-1,1.1476031E-1,0E0,0E0,3.4371063E-1,8.1383145E-1,6.975367E-1,0E0,0E0,0E0,0E0,8.1005555E-1,1.0269685E0,4.909851E-1,8.5470104E-1,4.7604433E-1,3.9373553E-1,0E0,0E0,0E0,2.3476303E-1,5.671848E-1,0E0,0E0,0E0,0E0,0E0,0E0,0E0,0E0,0E0],"parents":[2147483647,0,0,1,1,2,2,4,4,5,5,6,6,7,7,10,10,11,11,12,12,17,17,18,18,19,19,20,20,21,21,22,22,26,26,27,27],"right_children":[2,4,6,-1,8,10,12,14,-1,-1,16,18,20,-1,-1,-1,-1,22,24,26,28,30,32,-1,-1,-1,34,36,-1,-1,-1,-1,-1,-1,-1,-1,-1],"split_conditions":[9.95E1,2.55E1,5E-1,-1.6872914E-1,5.5E0,7.2E1,6.9E1,2.1E1,-1.16055615E-1,1.8896572E-1,2.45E1,6.3E1,2.565E-1,1.0964625E-1,1.9464208E-3,-1.114192E-1,5.474746E-2,2.5E0,4.05E1,1.83E-1,8.7E1,1.245E2,6.65E1,-2.1988808E-1,5.0886165E-2,4.3500513E-2,2.08E-1,4.01E1,-9.0502985E-2,-1.8479237E-1,1.7805649E-2,1.4401352E-1,-2.7764421E-2,-1.9160411E-1,-3.3996876E-2,1.2027656E-1,-5.9502624E-2],"split_indices":[1,7,0,0,0,2,2,4,0,0,7,2,6,0,0,0,0,0,7,6,2,1,4,0,0,0,6,5,0,0,0,0,0,0,0,0,0],"split_type":[0,0,0,0,0,0,0,0,0,0,0,0,0,0,0,0,0,0,0,0,0,0,0,0,0,0,0,0,0,0,0,0,0,0,0,0,0],"sum_hessian":[4.0142723E1,6.599113E0,3.354361E1,1.1798471E0,5.419266E0,4.516976E0,2.9026632E1,3.3324022E0,2.0868638E0,1.9191979E0,2.597778E0,1.1223115E1,1.7803516E1,2.0170202E0,1.3153819E0,1.1178833E0,1.4798948E0,6.989777E0,4.233338E0,5.5708284E0,1.2232689E1,2.865384E0,4.1243935E0,2.8284922E0,1.4048461E0,2.1067078E0,3.4641206E0,1.029288E1,1.9398088E0,1.122797E0,1.742587E0,2.7751467E0,1.3492466E0,1.1359699E0,2.3281507E0,9.045223E0,1.2476562E0],"tree_param":{"num_deleted":"0","num_feature":"8","num_nodes":"37","size_leaf_vector":"0"}},{"base_weights":[-1.9088574E-2,3.0776723E-3,-2.687339E-1,-2.0990694E-2,3.508067E-1,1.013833E-1,-5.394896E-1,-4.720394E-2,3.4911335E-1,3.575859E-2,-1.6307086E-1,-3.6160607E-2,4.8602197E-1,5.1535717E-3,-4.0745965E-1,-9.773957E-2,3.034897E-1,3.2609966E-1,-1.0981349E-1,-7.6823866E-1,1.6218679E-1],"categories":[],"categories_nodes":[],"categories_segments":[],"categories_sizes":[],"default_left":[true,true,true,true,false,false,false,true,false,true,true,true,false,true,true,false,false,false,false,false,false],"id":29,"left_children":[1,3,5,7,-1,-1,-1,9,-1,11,13,15,-1,17,19,-1,-1,-1,-1,-1,-1],"loss_changes":[2.2174999E-1,3.2251796E-1,3.8209182E-1,3.6730972E-1,0E0,0E0,0E0,3.389184E-1,0E0,6.9802654E-1,6.0390645E-1,4.2809093E-1,0E0,3.921593E-1,1.3536979E0,0E0,0E0,0E0,0E0,0E0,0E0],"parents":[2147483647,0,0,1,1,2,2,3,3,7,7,9,9,10,10,11,11,13,13,14,14],"right_children":[2,4,6,8,-1,-1,-1,10,-1,12,14,16,-1,18,20,-1,-1,-1,-1,-1,-1],"split_conditions":[5.65E1,5.15E1,4.5E0,1.15E1,1.0524202E-1,3.0414991E-2,-1.6184689E-1,3.35E1,1.0473401E-1,3.15E1,3.78E-1,1.545E2,1.458066E-1,3.65E1,2.7E1,-2.9321872E-2,9.1046914E-2,9.78299E-2,-3.294405E-2,-2.3047161E-1,4.865604E-2],"split_indices":[7,7,0,0,0,0,0,7,0,7,6,1,0,7,3,0,0,0,0,0,0],"split_type":[0,0,0,0,0,0,0,0,0,0,0,0,0,0,0,0,0,0,0,0,0],"sum_hessian":[3.8923187E1,3.6656128E1,2.267061E0,3.5161995E1,1.494133E0,1.222071E0,1.0449901E0,3.365106E1,1.5109357E0,2.0012896E1,1.3638164E1,1.8049582E1,1.9633143E0,8.657623E0,4.980541E0,1.5882332E1,2.1672487E0,1.7990025E0,6.85862E0,2.8358588E0,2.1446822E0],"tree_param":{"num_deleted":"0","num_feature":"8","num_nodes":"21","size_leaf_vector":"0"}},{"base_weights":[-9.668439E-3,-3.0658096E-2,2.0803137E-1,-8.7639466E-2,7.460299E-2,-9.450264E-2,3.863289E-1,-4.40955E-3,-3.532547E-1,4.225637E-1,-5.7753853E-2,1.16222665E-1,-3.4674564E-1,-5.6309336E-1,2.9559115E-1,5.590687E-1,1.9095242E-2,3.559418E-2,-4.4780394E-1,1.921184E-1,-3.1386015E-1,-6.4815277E-1,6.4041935E-2,-7.067811E-1,-1.6235971E-1,-2.226711E-1,2.6409566E-1,3.4036627E-1,3.7752956E-4,6.1450166E-1,-5.170636E-1,-3.9894393E-1,2.1950796E-1,-1.6036105E-1,4.5276862E-1],"categories":[],"categories_nodes":[],"categories_segments":[],"categories_sizes":[],"default_left":[true,true,true,true,true,false,false,true,true,true,true,true,true,true,false,false,false,true,false,true,false,false,true,false,false,true,true,false,false,false,false,false,false,false,false],"id":30,"left_children":[1,3,5,7,9,-1,-1,11,13,15,17,19,21,23,-1,-1,-1,25,-1,27,-1,-1,29,-1,-1,31,33,-1,-1,-1,-1,-1,-1,-1,-1],"loss_changes":[1.857859E-1,2.2655077E-1,2.296763E-1,5.3472507E-1,6.426064E-1,0E0,0E0,8.4489554E-1,9.5274067E-1,1.9966477E-1,4.0203485E-1,5.5499977E-1,7.0114815E-1,1.5633929E-1,0E0,0E0,0E0,6.184152E-1,0E0,3.8368553E-1,0E0,0E0,1.3300731E0,0E0,0E0,4.768213E-1,5.1215947E-1,0E0,0E0,0E0,0E0,0E0,0E0,0E0,0E0],"parents":[2147483647,0,0,1,1,2,2,3,3,4,4,7,7,8,8,9,9,10,10,11,11,12,12,13,13,17,17,19,19,22,22,25,25,26,26],"right_children":[2,4,6,8,10,-1,-1,12,14,16,18,20,22,24,-1,-1,-1,26,-1,28,-1,-1,30,-1,-1,32,34,-1,-1,-1,-1,-1,-1,-1,-1],"split_conditions":[1.655E2,5.0100005E-1,1.65E1,3.79E-1,5.5799997E-1,-2.8350795E-2,1.15898676E-1,3.25E1,1.395E2,1.545E2,1.505E2,9.5E0,1.275E2,6.5E0,8.867735E-2,1.6772062E-1,5.7285726E-3,2.5E0,-1.343412E-1,1.245E2,-9.4158046E-2,-1.9444583E-1,1.395E2,-2.1203433E-1,-4.8707917E-2,1.625E2,3.5E0,1.0210989E-1,1.1325887E-4,1.843505E-1,-1.5511909E-1,-1.19683184E-1,6.585239E-2,-4.8108317E-2,1.358306E-1],"split_indices":[1,6,3,6,6,0,0,3,1,4,1,0,1,0,0,0,0,0,0,1,0,0,1,0,0,4,3,0,0,0,0,0,0,0,0],"split_type":[0,0,0,0,0,0,0,0,0,0,0,0,0,0,0,0,0,0,0,0,0,0,0,0,0,0,0,0,0,0,0,0,0,0,0],"sum_hessian":[3.8262558E1,3.568148E1,2.5810785E0,2.3258356E1,1.2423122E1,1.1313627E0,1.4497159E0,1.8483269E1,4.7750874E0,2.8191316E0,9.6039915E0,1.415562E1,4.3276486E0,3.7080536E0,1.0670339E0,1.8182942E0,1.0008374E0,8.482642E0,1.1213485E0,1.2502611E1,1.6530085E0,2.1628625E0,2.1647863E0,2.167245E0,1.5408086E0,3.9939594E0,4.488683E0,6.6138554E0,5.888756E0,1.0821941E0,1.0825924E0,2.9254992E0,1.0684603E0,1.4274389E0,3.0612442E0],"tree_param":{"num_deleted":"0","num_feature":"8","num_nodes":"35","size_leaf_vector":"0"}},{"base_weights":[-1.2613354E-2,-1.531765E-1,2.3518909E-2,-5.38832E-1,-1.3147927E-2,2.5506407E-1,-2.0385278E-2,1.9582269E-1,-1.6305049E-1,4.945712E-1,-1.18773945E-1,-4.4932898E-2,2.7002856E-1,-6.8445675E-2,3.916704E-1,-3.47088E-1,1.6772121E-1,-1.6854048E-1,6.507923E-2,-9.154661E-2,-4.3287212E-1,-2.8615436E-1,4.109755E-2,2.7877304E-1,-9.910596E-2,-4.209932E-1,8.1641264E-2,4.4667533E-1,-1.8424337E-1,-7.951865E-2,4.5430052E-1,-2.4419592E-1,3.0616483E-1],"categories":[],"categories_nodes":[],"categories_segments":[],"categories_sizes":[],"default_left":[true,true,true,false,true,true,true,true,true,false,false,true,false,false,false,true,false,true,true,false,false,true,true,true,true,false,false,false,false,false,false,false,false],"id":31,"left_children":[1,3,5,-1,7,9,11,13,15,-1,-1,17,-1,-1,-1,19,-1,21,23,-1,-1,25,27,29,31,-1,-1,-1,-1,-1,-1,-1,-1],"loss_changes":[1.9762848E-1,4.219741E-1,3.2295713E-1,0E0,2.4662447E-1,5.114565E-1,2.0605053E-1,1.9849317E-1,3.3437556E-1,0E0,0E0,3.6369067E-1,0E0,0E0,0E0,3.1410575E-2,0E0,3.197953E-1,5.344535E-1,0E0,0E0,4.3749845E-1,5.7256997E-1,4.4734526E-1,5.984894E-1,0E0,0E0,0E0,0E0,0E0,0E0,0E0,0E0],"parents":[2147483647,0,0,1,1,2,2,4,4,5,5,6,6,7,7,8,8,11,11,15,15,17,17,18,18,21,21,22,22,23,23,24,24],"right_children":[2,4,6,-1,8,10,12,14,16,-1,-1,18,-1,-1,-1,20,-1,22,24,-1,-1,26,28,30,32,-1,-1,-1,-1,-1,-1,-1,-1],"split_conditions":[1.015E2,2.55E1,5E-1,-1.6164961E-1,6.9E1,7.7E1,4.35E1,6.3E1,4.25E1,1.4837137E-1,-3.5632186E-2,7.1E1,8.100857E-2,-2.0533703E-2,1.17501125E-1,8.2E1,5.0316367E-2,1.31E2,3.275E1,-2.7463984E-2,-1.2986164E-1,5.28E-1,2.55E-1,2.815E1,4.2800003E1,-1.2629797E-1,2.4492381E-2,1.3400261E-1,-5.527301E-2,-2.3855597E-2,1.3629016E-1,-7.325878E-2,9.1849454E-2],"split_indices":[1,7,0,0,2,2,3,2,7,0,0,2,0,0,0,1,0,1,5,0,0,6,6,5,5,0,0,0,0,0,0,0,0],"split_type":[0,0,0,0,0,0,0,0,0,0,0,0,0,0,0,0,0,0,0,0,0,0,0,0,0,0,0,0,0,0,0,0,0],"sum_hessian":[3.720262E1,6.9451184E0,3.0257502E1,1.091362E0,5.8537564E0,4.0561767E0,2.6201326E1,2.3171778E0,3.5365787E0,2.275423E0,1.7807535E0,2.4938635E1,1.2626916E0,1.2631943E0,1.0539834E0,2.2406044E0,1.2959743E0,1.1493139E1,1.3445496E1,1.0826585E0,1.157946E0,7.1287065E0,4.3644323E0,5.538713E0,7.9067826E0,5.1104918E0,2.0182145E0,1.2080016E0,3.156431E0,2.0010617E0,3.5376513E0,6.1150126E0,1.7917699E0],"tree_param":{"num_deleted":"0","num_feature":"8","num_nodes":"33","size_leaf_vector":"0"}},{"base_weights":[-5.888581E-3,1.1381025E-2,-3.169553E-1,8.3750464E-2,-7.501399E-2,1.8263549E-1,-1.1606973E-1,-2.4549092E-1,8.919183E-2,2.8296232E-1,-1.4605011E-1,-2.5099555E-1,3.5203874E-1,-4.7155133E-1,1.4816001E-2,4.209213E-1,-1.02263354E-1,-4.2964727E-2,4.3241212E-1,1.2295273E-1,-3.164769E-1,2.5184017E-1,-5.122989E-1,-5.2044865E-2,-6.7395E-1,-2.6646873E-1,1.8270501E-1,5.857497E-1,7.5756595E-2,-3.3994684E-1,8.58834E-2,-4.0975037E-1,1.933076E-1,-7.316327E-2,6.283115E-1,-1.043421E-1,-6.152655E-1,3.378758E-1,-1.0753694E-1,-5.806234E-1,5.2246448E-2,4.1961536E-1,-2.452082E-1],"categories":[],"categories_nodes":[],"categories_segments":[],"categories_sizes":[],"default_left":[true,true,false,true,true,true,true,true,true,true,true,true,false,true,true,true,true,true,true,false,false,false,true,false,false,false,true,false,false,true,true,false,false,false,false,false,false,false,false,false,false,false,false],"id":32,"left_children":[1,3,-1,5,7,9,11,13,15,17,19,21,-1,23,25,27,29,31,33,-1,-1,-1,35,-1,-1,-1,37,-1,-1,39,41,-1,-1,-1,-1,-1,-1,-1,-1,-1,-1,-1,-1],"loss_changes":[2.044248E-1,2.3375201E-1,0E0,4.2172164E-1,5.008951E-1,5.012893E-1,5.5080307E-1,5.166904E-1,6.431899E-1,5.556973E-1,2.1869296E-1,9.525008E-1,0E0,3.6112928E-1,2.8459492E-1,1.6347831E-1,3.331094E-1,4.5846245E-1,8.0370426E-1,0E0,0E0,0E0,1.2288582E-1,0E0,0E0,0E0,2.0394175E-1,0E0,0E0,3.3280468E-1,6.102474E-1,0E0,0E0,0E0,0E0,0E0,0E0,0E0,0E0,0E0,0E0,0E0,0E0],"parents":[2147483647,0,0,1,1,3,3,4,4,5,5,6,6,7,7,8,8,9,9,10,10,11,11,13,13,14,14,15,15,16,16,17,17,18,18,22,22,26,26,29,29,30,30],"right_children":[2,4,-1,6,8,10,12,14,16,18,20,22,-1,24,26,28,30,32,34,-1,-1,-1,36,-1,-1,-1,38,-1,-1,40,42,-1,-1,-1,-1,-1,-1,-1,-1,-1,-1,-1,-1],"split_conditions":[6.25E1,4.85E1,-9.50866E-2,7.7E1,1.275E2,7.5E0,4.285E1,5.095E-1,1.385E2,2.9650002E1,6.7E1,3.2E1,1.0561163E-1,2.6349998E-1,1.035E2,1.445E2,3.45E-1,2.5349998E-1,2.45E1,3.688582E-2,-9.494308E-2,7.5552054E-2,8.1E1,-1.561346E-2,-2.0218502E-1,-7.9940625E-2,1.185E2,1.7572491E-1,2.272698E-2,1.425E2,4.9550003E-1,-1.2292512E-1,5.799228E-2,-2.1948982E-2,1.8849346E-1,-3.130263E-2,-1.8457966E-1,1.0136275E-1,-3.2261085E-2,-1.7418702E-1,1.5673935E-2,1.258846E-1,-7.3562466E-2],"split_indices":[7,4,0,2,1,0,5,6,1,5,2,5,0,6,1,4,6,6,7,0,0,0,2,0,0,0,1,0,0,4,6,0,0,0,0,0,0,0,0,0,0,0,0],"split_type":[0,0,0,0,0,0,0,0,0,0,0,0,0,0,0,0,0,0,0,0,0,0,0,0,0,0,0,0,0,0,0,0,0,0,0,0,0,0,0,0,0,0,0],"sum_hessian":[3.6382267E1,3.5381397E1,1.0008694E0,1.927019E1,1.611121E1,1.294841E1,6.321779E0,7.661791E0,8.449419E0,1.0026934E1,2.9214766E0,5.267348E0,1.0544312E0,3.6663089E0,3.995482E0,2.6534016E0,5.796017E0,3.3762858E0,6.6506476E0,1.2410905E0,1.680386E0,1.8135949E0,3.4537528E0,1.602334E0,2.0639749E0,1.2739342E0,2.7215476E0,1.3240876E0,1.3293139E0,2.2044036E0,3.5916135E0,1.0351325E0,2.3411534E0,2.0322814E0,4.6183662E0,1.1017895E0,2.3519633E0,1.6664847E0,1.055063E0,1.0683433E0,1.1360605E0,1.6555209E0,1.9360925E0],"tree_param":{"num_deleted":"0","num_feature":"8","num_nodes":"43","size_leaf_vector":"0"}},{"base_weights":[-1.1184601E-2,-3.3311546E-2,2.1740319E-1,-1.3356018E-1,2.3103328E-2,-5.7811096E-2,3.9697734E-1,-3.072103E-1,-7.673842E-3,-2.0890655E-2,3.85925E-1,-4.551376E-1,3.0741228E-2,3.8855654E-1,-1.8833512E-1,2.5274744E-2,-3.4909028E-1,-5.958885E-1,-6.44438E-2,-3.2843408E-1,-2.5884256E-2,1.2088502E-1,-1.9846073E-1,-4.6210846E-1,-5.1216632E-2,1.2783077E-1,-1.6188174E-1,2.5134894E-1,-9.4697796E-2,1.7068897E-1,-3.8163987E-1],"categories":[],"categories_nodes":[],"categories_segments":[],"categories_sizes":[],"default_left":[true,true,true,true,true,false,false,true,true,true,false,true,false,false,true,true,false,false,false,true,true,true,true,false,false,false,false,false,false,false,false],"id":33,"left_children":[1,3,5,7,9,-1,-1,11,13,15,-1,17,-1,-1,19,21,-1,-1,-1,23,25,27,29,-1,-1,-1,-1,-1,-1,-1,-1],"loss_changes":[1.9012612E-1,1.9443303E-1,1.8722565E-1,2.6720226E-1,3.672494E-1,0E0,0E0,2.717902E-1,6.583247E-1,3.272743E-1,0E0,1.6231656E-1,0E0,0E0,1.3460752E-1,4.380961E-1,0E0,0E0,0E0,9.8275214E-2,1.042556E-1,4.227417E-1,4.82655E-1,0E0,0E0,0E0,0E0,0E0,0E0,0E0,0E0],"parents":[2147483647,0,0,1,1,2,2,3,3,4,4,7,7,8,8,9,9,11,11,14,14,15,15,19,19,20,20,21,21,22,22],"right_children":[2,4,6,8,10,-1,-1,12,14,16,-1,18,-1,-1,20,22,-1,-1,-1,24,26,28,30,-1,-1,-1,-1,-1,-1,-1,-1],"split_conditions":[1.655E2,2.5E0,3.425E1,3.325E1,8.865E-1,-1.734333E-2,1.190932E-1,1.325E2,3.51E1,6.895E-1,1.157775E-1,2.85E1,9.222369E-3,1.1656696E-1,4.29E-1,9.1E1,-1.0472709E-1,-1.7876655E-1,-1.9333139E-2,3.945E1,6.5349996E-1,3.405E1,2.95E1,-1.3863255E-1,-1.5364991E-2,3.8349234E-2,-4.8564527E-2,7.540469E-2,-2.840934E-2,5.1206693E-2,-1.1449196E-1],"split_indices":[1,0,5,5,6,0,0,1,5,6,0,7,0,0,6,4,0,0,0,5,6,5,7,0,0,0,0,0,0,0,0],"split_type":[0,0,0,0,0,0,0,0,0,0,0,0,0,0,0,0,0,0,0,0,0,0,0,0,0,0,0,0,0,0,0],"sum_hessian":[3.5157757E1,3.283377E1,2.3239858E0,1.1331087E1,2.1502684E1,1.1853663E0,1.1386195E0,4.156773E0,7.174314E0,2.0017841E1,1.484844E0,2.6500468E0,1.5067261E0,1.8863602E0,5.287954E0,1.835848E1,1.659361E0,1.5620857E0,1.087961E0,2.2906952E0,2.9972584E0,1.3184123E1,5.174357E0,1.0954943E0,1.1952008E0,1.4351689E0,1.5620897E0,8.110188E0,5.0739346E0,1.7386824E0,3.4356744E0],"tree_param":{"num_deleted":"0","num_feature":"8","num_nodes":"31","size_leaf_vector":"0"}},{"base_weights":[-1.2444404E-2,1.0918129E-2,-2.5302508E-1,-3.979126E-2,1.6977978E-1,7.819838E-3,-3.8045487E-1,-1.6645929E-1,5.349878E-2,-1.0033786E-2,4.6171325E-1,5.0347965E-2,-3.610554E-1,-3.2807417E-2,5.0377625E-1,-2.628633E-1,1.8220095E-1,1.16233185E-1,5.903698E-1,2.7176487E-1,-3.0954868E-1,-5.4665E-1,1.7573358E-2,3.5965648E-2,-4.496651E-1,-2.976885E-1,4.6181354E-1,1.5906598E-2,5.073276E-1,-9.874462E-2,1.7489962E-1],"categories":[],"categories_nodes":[],"categories_segments":[],"categories_sizes":[],"default_left":[true,true,true,true,true,false,false,true,true,true,true,true,true,true,false,false,true,false,false,true,false,false,false,true,false,false,false,false,false,false,false],"id":34,"left_children":[1,3,5,7,9,-1,-1,11,13,15,17,19,21,23,-1,-1,25,-1,-1,27,-1,-1,-1,29,-1,-1,-1,-1,-1,-1,-1],"loss_changes":[2.0254838E-1,2.7547902E-1,1.0892962E-1,3.172836E-1,4.3830243E-1,0E0,0E0,4.954054E-1,6.299614E-1,3.4394035E-1,7.22903E-2,5.8041495E-1,4.370982E-1,4.228353E-1,0E0,0E0,6.810324E-1,0E0,0E0,2.5641602E-1,0E0,0E0,0E0,2.6248688E-1,0E0,0E0,0E0,0E0,0E0,0E0,0E0],"parents":[2147483647,0,0,1,1,2,2,3,3,4,4,7,7,8,8,9,9,10,10,11,11,12,12,13,13,16,16,19,19,23,23],"right_children":[2,4,6,8,10,-1,-1,12,14,16,18,20,22,24,-1,-1,26,-1,-1,28,-1,-1,-1,30,-1,-1,-1,-1,-1,-1,-1],"split_conditions":[5.55E1,4.15E1,3.5E0,3.135E-1,1.09E2,2.3459515E-3,-1.14136465E-1,6.7E1,1.565E2,1.07E2,7.1E1,2.5E-1,8.1E1,1.46E2,1.5113288E-1,-7.8858994E-2,5.5E0,3.4869958E-2,1.7711096E-1,1.94E-1,-9.28646E-2,-1.63995E-1,5.2720075E-3,2.95E1,-1.3489954E-1,-8.9306556E-2,1.3854407E-1,4.7719795E-3,1.5219828E-1,-2.9623387E-2,5.246989E-2],"split_indices":[7,7,3,6,4,0,0,2,1,1,2,6,2,1,0,0,0,0,0,6,0,0,0,3,0,0,0,0,0,0,0],"split_type":[0,0,0,0,0,0,0,0,0,0,0,0,0,0,0,0,0,0,0,0,0,0,0,0,0,0,0,0,0,0,0],"sum_hessian":[3.454545E1,3.2357834E1,2.187617E0,2.5096449E1,7.2613826E0,1.0260198E0,1.1615973E0,1.0311418E1,1.4785032E1,5.0911617E0,2.170221E0,5.2279835E0,5.083434E0,1.3184965E1,1.6000668E0,2.040311E0,3.0508504E0,1.1053839E0,1.0648373E0,3.3883011E0,1.8396822E0,3.113507E0,1.9699272E0,1.2102088E1,1.0828772E0,1.0993785E0,1.9514719E0,2.1359015E0,1.2523998E0,6.291309E0,5.8107786E0],"tree_param":{"num_deleted":"0","num_feature":"8","num_nodes":"31","size_leaf_vector":"0"}},{"base_weights":[-8.427332E-3,-1.5008308E-1,2.4388878E-2,-4.173451E-1,7.45179E-2,3.5739723E-1,-4.05948E-3,-2.4677532E-2,-5.963559E-1,-1.6846457E-1,4.352251E-1,-1.8587461E-1,4.067087E-2,2.3051882E-1,-4.9611616E-1,-4.173243E-1,8.5654214E-2,2.2767022E-1,-5.5003706E-2,-5.3049856E-1,-1.2354146E-1,3.1274992E-1,-1.627011E-1,3.1184694E-1,-1.3983719E-1,-4.7295853E-1,4.0830698E-2,5.1810783E-1,-4.4022724E-3,-4.0470973E-2,3.6347067E-1],"categories":[],"categories_nodes":[],"categories_segments":[],"categories_sizes":[],"default_left":[true,true,true,true,true,false,true,false,false,true,false,true,true,false,false,true,true,true,true,false,false,false,false,true,false,false,true,false,false,false,false],"id":35,"left_children":[1,3,5,7,9,-1,11,-1,-1,13,-1,15,17,-1,-1,19,21,23,25,-1,-1,-1,-1,27,-1,-1,29,-1,-1,-1,-1],"loss_changes":[1.6473597E-1,4.3070874E-1,2.7611905E-1,2.0960993E-1,4.6472365E-1,0E0,2.3283473E-1,0E0,0E0,5.5743253E-1,0E0,3.9074433E-1,4.249352E-1,0E0,0E0,4.1513383E-2,2.4428384E-1,2.9098672E-1,6.6237354E-1,0E0,0E0,0E0,0E0,4.46882E-1,0E0,0E0,3.8143837E-1,0E0,0E0,0E0,0E0],"parents":[2147483647,0,0,1,1,2,2,3,3,4,4,6,6,9,9,11,11,12,12,15,15,16,16,17,17,18,18,23,23,26,26],"right_children":[2,4,6,8,10,-1,12,-1,-1,14,-1,16,18,-1,-1,20,22,24,26,-1,-1,-1,-1,28,-1,-1,30,-1,-1,-1,-1],"split_conditions":[2.08E-1,1.175E2,2.3550001E-1,1.035E2,5.5E0,1.07219175E-1,9.95E1,-7.4032596E-3,-1.7890678E-1,6.7E1,1.3056754E-1,3.05E1,1.185E2,6.915565E-2,-1.4883485E-1,4.5E0,8.25E1,7.49E-1,1.235E2,-1.5914957E-1,-3.706244E-2,9.382498E-2,-4.8810333E-2,3.375E1,-4.1951157E-2,-1.4188756E-1,4.1E1,1.5543236E-1,-1.3206818E-3,-1.2141292E-2,1.0904121E-1],"split_indices":[6,1,6,1,0,0,1,0,0,2,0,3,1,0,0,0,1,6,1,0,0,0,0,5,0,0,5,0,0,0,0],"split_type":[0,0,0,0,0,0,0,0,0,0,0,0,0,0,0,0,0,0,0,0,0,0,0,0,0,0,0,0,0,0,0],"sum_hessian":[3.3650314E1,5.6571207E0,2.7993195E1,2.1913636E0,3.4657571E0,1.2931329E0,2.6700062E1,1.042485E0,1.1488787E0,2.389251E0,1.0765061E0,4.6487746E0,2.2051287E1,1.2110271E0,1.178224E0,2.2197385E0,2.429036E0,6.9965844E0,1.5054702E1,1.0207596E0,1.1989789E0,1.1333857E0,1.2956502E0,5.815916E0,1.1806682E0,2.074069E0,1.2980634E1,3.1337583E0,2.6821578E0,1.1066549E1,1.9140837E0],"tree_param":{"num_deleted":"0","num_feature":"8","num_nodes":"31","size_leaf_vector":"0"}},{"base_weights":[-9.953834E-3,1.0988058E-2,-2.2093697E-1,-1.2302831E-2,3.3171973E-1,-5.909422E-4,-3.277497E-1,-3.888933E-2,3.2348022E-1,-2.1951991E-1,3.8330376E-3,8.842802E-2,-3.516542E-1,3.4169797E-2,-2.892175E-1,-1.0153427E-1,-4.8979685E-1,6.981262E-2,-2.008761E-1],"categories":[],"categories_nodes":[],"categories_segments":[],"categories_sizes":[],"default_left":[true,true,true,true,false,false,false,true,false,true,true,false,true,true,false,false,false,false,false],"id":36,"left_children":[1,3,5,7,-1,-1,-1,9,-1,11,13,-1,15,17,-1,-1,-1,-1,-1],"loss_changes":[1.517825E-1,2.4090931E-1,7.275905E-2,2.850521E-1,0E0,0E0,0E0,2.2598104E-1,0E0,2.5886548E-1,2.2837724E-1,0E0,9.255028E-2,2.0809981E-1,0E0,0E0,0E0,0E0,0E0],"parents":[2147483647,0,0,1,1,2,2,3,3,7,7,9,9,10,10,12,12,13,13],"right_children":[2,4,6,8,-1,-1,-1,10,-1,12,14,-1,16,18,-1,-1,-1,-1,-1],"split_conditions":[5.55E1,5.15E1,1.1E1,1.15E1,9.951592E-2,-1.7728267E-4,-9.832492E-2,9.95E1,9.704407E-2,8.05E1,4.65E1,2.6528407E-2,8E0,2.305E2,-8.676525E-2,-3.0460281E-2,-1.4693905E-1,2.0943787E-2,-6.0262833E-2],"split_indices":[7,7,3,0,0,0,0,1,0,1,7,0,4,4,0,0,0,0,0],"split_type":[0,0,0,0,0,0,0,0,0,0,0,0,0,0,0,0,0,0,0],"sum_hessian":[3.2803032E1,3.0703379E1,2.0996547E0,2.9521246E1,1.1821321E0,1.0137999E0,1.0858549E0,2.817463E1,1.3466166E0,4.597608E0,2.3577023E1,1.4797412E0,3.1178665E0,2.2165804E1,1.4112171E0,1.7266339E0,1.3912327E0,1.985755E1,2.3082547E0],"tree_param":{"num_deleted":"0","num_feature":"8","num_nodes":"19","size_leaf_vector":"0"}},{"base_weights":[-1.266677E-2,-4.8090402E-2,1.4449973E-1,1.0398944E-2,-2.4352306E-1,-2.5250202E-1,3.4443492E-1,1.11730464E-1,-1.4253539E-1,1.3103656E-1,-3.7201855E-1,4.5353103E-1,2.5545761E-3,1.5688187E-1,-1.1098446E-1,2.2516982E-1,-2.175162E-1,-4.5779368E-1,-5.0911166E-2,1.12737246E-1,6.035394E-1,7.8156084E-2,4.651632E-1,-4.5240155E-1,-6.4853296E-2,-5.743075E-1,-1.473698E-1,1.9379133E-1,-2.6286945E-1,3.6363366E-1,-2.7503246E-1],"categories":[],"categories_nodes":[],"categories_segments":[],"categories_sizes":[],"default_left":[true,true,true,true,true,false,true,true,true,false,true,true,false,true,false,false,true,true,false,false,false,true,false,false,true,false,false,false,false,false,false],"id":37,"left_children":[1,3,5,7,9,-1,11,13,15,-1,17,19,-1,21,-1,-1,23,25,-1,-1,-1,27,-1,-1,29,-1,-1,-1,-1,-1,-1],"loss_changes":[1.934853E-1,3.2365197E-1,5.959504E-1,3.6586082E-1,3.6216187E-1,0E0,1.7368025E-1,1.5962496E-1,3.0920357E-1,0E0,1.1741221E-1,1.1333859E-1,0E0,2.590751E-1,0E0,0E0,2.7002043E-1,5.66715E-2,0E0,0E0,0E0,4.8072132E-1,